[-1.792410105548888799e+00,5.045618306362206207e-01,-1.596964717606813355e+00,-1.240221380003485585e+00,-2.798657137607248879e-01,-1.959119600419479135e-01,3.504603678120540966e+00,-5.081752891903150715e-01,1.386965411492989020e+00,5.820301489790169036e+00,5.127399777158368366e+00,2.028799371922072936e+00,1.442027179176533780e+00,1.811301017240951827e+00,1.623491435700241681e+00,5.096802569088743073e-01,1.178085572753319710e+00,-1.660466976645620374e+00,-1.797438845679729225e+00,1.981719517829987343e+00,-1.436460238163600467e-01,-2.404520877570306414e+00,-2.696066584954096790e+00,7.145585522772208709e-01,-1.035856255947493199e-01,2.404636427680961752e+00,-9.632970418405707447e-01,1.658573199841357981e+00,-1.505759326256926656e+00,2.476125689586143430e+00,2.278692438650820495e+00,1.660582736255078462e+00,-2.170994153502828983e+00,2.169703297777212825e+00,-9.894948148274876898e-01,4.270288165490373267e+00,-6.807057308100756821e-01,6.930132543934707234e-01,5.096843841238121176e-01,4.556700858713034208e+00,3.070696036392728950e-02,2.640223945051389354e+00,-2.386895953957661742e+00,-6.259899767342845811e-01,-2.175846546904502077e+00,-2.737997654894676058e-01,1.111962535594365864e+00,-2.247415732342794126e+00,6.151836894304903991e-01,-1.488310069775581335e+00,3.083133436139547268e+00,-1.667426696826484367e+00,-2.329022367141648786e+00,1.088837788918729732e+00,8.766645199464186966e-01,1.833934222014776072e+00,3.463623625784596705e+00,3.704222395048974992e-01,-2.349950993053511183e+00,-3.275760004904861300e-01,-2.435574473046248301e+00,4.111033404722124196e+00,2.719479640209702787e+00,4.925622878738830757e+00,-1.940443585766659318e+00,6.308637843570952253e-01,2.181762267200666461e+00,1.887372181665016857e+00,-1.757866021713959392e-01,2.566359816389920945e-01,-3.466649533417436757e+00,-1.590898930485341811e+00,1.203961641179572162e+00,2.053440900179206885e+00,-3.804501618297341792e-01,2.009905884093024397e+00,-2.465946538208296790e+00,2.359943006875768301e+00,2.382269923160266756e-01,-3.117820119564369108e+00,2.113034074094806147e+00,1.106014250787068720e+00,4.030302615104325303e-01,2.787747754452397086e-01,3.794604413950820376e+00,8.132993527236003217e-01,-1.699990281062499164e+00,-2.254219287038921604e-01,-2.987959034906354727e+00,4.089439970599302754e+00,-1.119273926809742914e+00,5.494447924502745551e-01,1.191447134022699528e+00,1.101900793235186748e+00,-2.041410591801576579e+00,9.362157219240692385e-02,6.609824899000019682e-01,-1.425565538884363770e+00,-3.170022151094229912e+00,-3.517930374681040862e-01,3.015011462400990494e-01,-4.501789195070944327e-01,2.864047445635080180e+00,2.309835743532942409e+00,-1.050886929649770707e+00,-4.694060245552749144e-01,1.901568513029088248e+00,4.518602112643056223e+00,-2.742614426302962816e+00,-2.134178011777727035e-01,2.218365838552865121e-01,-3.206015031965122608e-01,-3.325970019846046788e-01,-9.226347937148375866e-01,5.256471126568728280e+00,1.091289121234304549e+00,-5.165176601154770619e-01,1.691378929885598570e+00,1.229263193031827850e+00,1.697673430753294521e-01,2.762993401933713233e+00,-2.018449677934385900e+00,-1.785564688376004572e+00,1.703895095257516701e+00,1.726150899732797672e+00,4.902147488763270999e+00,3.193928897651107324e+00,-1.467939725665090567e+00,-8.882898222625086326e-01,-9.092128320829737653e-01,-1.217894061463205974e-01,-1.996079806068114415e+00,3.580121358882728977e+00,-1.073758018961778138e+00,-1.532600109877462202e+00,4.172326508482795959e-01,1.466650749894689909e+00,-2.998332527433793526e+00,-1.537102374260982188e-02,9.143501197070292852e-01,1.333640103311741321e+00,3.702801316876693338e+00,2.669947390272402465e+00,1.175528356962981524e+00,-1.283842722166122829e+00,-1.943898686297936607e+00,-1.372885277584249497e+00,1.455724534489568178e+00,1.087760534459196737e+00,-1.923078438998609974e+00,2.124661472675424712e+00,8.114596230756011830e-02,-9.344468339942388901e-01,5.391648132634910828e-01,-9.664680812794126386e-01]