[2.355776920771674998e-01,6.090469137364663554e-01,7.069560340292286860e-01,6.884279040841478903e-01,-4.037443633637327611e-02,2.566620507725791978e-02,-1.611375274569707694e-01,-1.382363977784169806e-01,3.408714471211722330e-01,5.518244919899493658e-03,-7.919088351472155507e-01,2.288361548792528233e-01,4.530049119346405556e-02,-1.668747401939422448e-01,-3.607468295787618073e-01,-6.083970370456037724e-01,-1.045316076930684179e+00,1.504787534336138044e-01,-2.348702371431786173e-01,3.448843599812040916e-01,5.095537351119268088e-01,-1.307948256019819677e-01,4.180586304241259987e-01,-1.689832422000765721e-01,-7.100712472619322146e-02,-7.280171081596557847e-02,-8.631169470955287748e-01,-8.897918377741101947e-01,1.768308002350380825e-01,-9.531036762332053061e-03,-3.358046430324727050e-01,-7.817764146607474041e-02,-2.590343599799653784e-01,-4.084418337767470875e-01,1.146549629709851387e-01,8.963075335876510286e-01,3.555256405857873947e-01,6.193974688267294137e-01,1.418985545652555746e+00,-1.528237924670932703e-02,1.452441625384842672e-01,6.852135893070350203e-01,-2.138417046200040139e-01,-8.883707151992123116e-03,2.000884300333560795e-01,-2.050904422513851258e-02,-2.250917222261620554e-01,-9.158208473002391048e-02,-5.248354164224172669e-01,-1.220896613838433176e+00,1.815424113629189040e-01,3.347292861910425299e-01,4.064368894019137479e-01,-9.906607029035656709e-01,-1.296197773875758241e-01,1.300485461574408808e-01,9.154802784211721334e-02,7.214350890804711591e-01,5.272448810456697998e-01,-1.811585570056028160e+00,4.590127058079512268e-01,5.176050196455519448e-01,2.181316191645540081e-01,-6.845453610385134890e-01,2.836194637954196907e-01,-2.030220229078906133e-02,1.078257517943879806e+00,2.852691084764228391e-01,3.956702806538495154e-01,5.618687791939291909e-01,1.678385616905753164e-01,8.027170628181790057e-02,-3.723524873364934817e-03,3.126841826079931330e-01,9.991883139936445779e-02,7.206719318316403555e-01,2.455948125350243261e-01,8.489316706413037039e-01,1.709006667304667770e-01,-1.637866265976689883e-01,-2.680041669690990530e-02,1.067662028133930935e-01,-1.243750834153299234e+00,-1.111094148459754530e-02,-3.133558989769962277e-01,3.266884661368255616e-01,-2.407960695515046906e-02,5.409233792298665522e-01,1.904112463332465269e-02,-4.888738045363060225e-01,1.312810079282527437e-02,-2.143825476086611836e-01,-1.116920082308199974e-01,-3.106168140826408020e-01,1.115709118570924474e-01,5.347234775808706875e-01,-4.516461835467857622e-01,1.468085321856834047e-01,2.013238041696009117e-01,4.788980306998816827e-01,3.379989175684218194e-01,-4.718635462363415106e-02,-3.360116037504214115e-02,2.930797073311834922e-01,3.764260721652581410e-01,1.230973715511212152e+00,8.682035890436002878e-01,-6.844111630452192063e-01,-1.260015531169665359e-01,-2.378323093508098451e-01,1.524291214816525519e-01,5.162073128447796089e-01,6.673794505352547146e-01,3.766444742239818955e-01,-5.811816427685296826e-01,-5.426023396042567448e-01,5.841383555732677646e-01,4.359005306668135155e-02,2.052828918463559527e-01,-9.591298217924242309e-01,-3.814792683745653612e-01,2.232735156167405810e-01,1.375923693385235624e-01,1.490834782028231387e-01,4.633116901914983154e-01,1.524595323256416612e-01,6.915917120670306284e-01,-3.631874769104034284e-01,-2.334612030138329408e-01,1.860849461973847818e+00,-4.056406097447444736e-01,8.397816240829020229e-02,-3.942194016038329946e-02,6.614501647714374766e-01,5.244635673846190782e-01,6.613598428173943500e-01,-1.146449191680815327e-01,-1.022523464339712695e-01,5.330810237477443536e-01,1.809124989664423477e-02,2.230690771020662488e-01,2.365383793918179323e-01,-8.047869419945807845e-01,-1.160449411579835610e+00,2.018226980303185203e-01,1.226840069682547885e+00,6.824184034680169653e-01,-6.291676551671840922e-01,-2.787559146499163365e-01,-1.074210309446225198e-01,6.347953006970946666e-02,4.030065187819459327e-02,7.790208692788788136e-01,1.014471017798673103e+00,1.331687353442663202e-01,-6.075925289007014785e-01,1.820454879692725292e-01,9.288702568385299729e-01,-8.411429381798231075e-01,-4.456952476662887769e-02,9.920694545581114632e-01,2.547942596127604764e-01,3.419344861644427747e-01,1.934606257649486849e-01,-3.766621565798346505e-01,5.361045642135555678e-01,1.575290751171389836e-01,-1.848816318949267234e+00,2.028611453007377052e-01,1.384537710891461104e-01,-2.446943459928460074e-01,1.878602722539496617e-01,-1.831142088596276751e-01,-1.356602244074019137e-01,5.811047405678233801e-02,-6.541124396116138051e-02,-5.329549257435424181e-01,-3.860345053358388845e-01,-9.478522524255483805e-02,1.139385639746344075e-01,-1.375429926084414667e-01,-7.427284468209791601e-01,-8.069527189218228536e-01,7.958452893708046760e-01,6.150843125423173519e-02,2.237373337971041432e-01,3.140427183316661930e-01,1.296621890205766903e+00,-8.577168989027362800e-01,-2.852307095649079041e-02,3.145254160291013346e-01,-7.430941050875491394e-01,-2.857992144343039498e-01,5.817627538087756234e-01,1.451830075067750692e-01,2.541181291935989961e-01,-5.261739991306178810e-02,-4.311592929321423351e-01,-2.213312401894671488e-01,-2.723958286762483971e-01,7.486032777570730268e-01,-6.896681601210010726e-01,2.523852834546487789e-01,-8.248033146974988183e-02,1.870148226963025406e-01,7.546060787456630725e-02,1.305651405138925913e-01,3.151555201997530142e-01,4.849545576096493393e-01,-1.187201198363954990e+00,-3.752765706133521229e-01,4.227290158647811075e-02,9.970195233791148692e-02,-1.216844067998473639e-01,-4.317247069906380436e-02,2.816556783391263030e-01,3.613718041747541743e-01,-2.928905581214265030e-01,-7.867340113158235448e-01,8.861273693983844346e-01,-1.455127536583391556e-01,6.370973888595170553e-01,3.228871772416965213e-01,2.861411498125149833e-01,6.002572105731065477e-01,-4.664238287749261080e-01,-1.875197714197104348e-01,-2.920893497535158832e-03,-2.885049966612080463e-01,-1.404509145115784952e+00,-7.728246523851654143e-03,-3.126852914541082828e-01,-2.122473518913120527e-01,-1.133701792184625301e+00,9.427392593684165434e-02,1.888384175061851022e-01,-1.739030412484759980e-01,-4.550380578408708132e-02,1.441026430239324418e-01,-2.840791168798965649e-01,-7.017749160105679618e-02,8.266826597292604717e-01,-4.994919566554605339e-01,-1.865836184666953557e-01,-7.025514813891169386e-01,2.866717317861248171e-01,8.228355708202412799e-01,-7.853015913785915680e-01,1.001248702145779157e-01,-1.251492856879528603e-01,7.660242200022546188e-02,-1.564592191492304996e-01,5.057534855178502653e-02,-2.660775493122053970e-01,4.135673482926794375e-01,2.107429330798519795e-01,-2.592150774627018928e-01,2.069131547675080174e-01,4.210930795194687826e-01,2.155341995646988529e-01,3.447385874667154848e-01,6.512708251448572350e-01,2.783075826465741809e-01,-8.729941826507084390e-02,1.177134999469159476e-01,-1.694309432133538906e-01,-6.326303321328208273e-01,-6.060412833174572134e-01,3.855967703125562918e-01,5.172962491612707048e-01,-9.021076796157512234e-01,-3.903223112525560090e-01,6.502394589686498749e-01,2.645992135764450026e-01,6.213205525556884934e-02,1.696628358454090879e-01,2.817379142564516159e-01,-8.838852198822051420e-01,-6.581996275128456642e-01,-7.178265383889141926e-01,5.665752767020858505e-01,1.228594535701278190e+00,-1.271326098527099768e+00,6.111534221550761481e-02,-1.146010417278012339e+00,4.372820023686294078e-01,5.380046486472112033e-01,7.767616867575527495e-01,1.072392358010202162e+00,-6.275084359436361447e-01,-4.138136481810056333e-01,7.263571813200871974e-01,-7.051703999128339229e-01,4.069331380616453830e-01,-5.498693280024919972e-01,-7.564279935041202663e-01,-4.893545718957028057e-01,1.034980941177908731e-01,7.940360912084677425e-01,1.087114806672411782e-01,-1.225100302129033258e-01,-3.997378604746560371e-01,-8.682662614287056657e-01,4.527763595316445233e-01,-3.202185430749185935e-01,8.800096119241517245e-01,2.550772784214617728e-01,1.533908751383211699e-01,-2.980876864258809600e-01,-4.818391393152349766e-01,4.908631728864207289e-01,-4.569739279390782061e-01,-1.471389451771877299e-01,9.428999268752231711e-01,7.920482814944207473e-01,-1.195213000490698230e+00,-4.803157038159787673e-01,-2.397944046002167817e-01,2.112537735591668298e-01,7.060818467151386280e-01,-1.031312276936069243e-02,-1.811339315873294192e-02,8.727502869979912592e-02,-5.691103155669668262e-02,5.012677033438132090e-01,6.725819627954847391e-02,4.363621548382696780e-01,1.690004033507618575e-01,4.150345943251996239e-01,-5.174644102613633612e-01,3.128905579990128305e-01,2.922374442950268492e-01,-1.047033030122509756e-01,-8.244547187435150581e-01,1.339351791867555486e+00,4.764325925775387827e-01,-3.813769612709827506e-02,8.278240131250993450e-01,-4.585620438978929014e-01,4.892099943856514921e-01,4.232310182008066635e-01,-4.132117877947422135e-01,-1.290820802799925282e+00,-4.245128938797726459e-01,1.131649250184710298e-01,-8.158807987128453565e-01,-4.655824626247150738e-02,4.697829174592167423e-01,-1.118476132309926374e+00,2.536282391234649380e-01,-2.089264276032975209e-01,8.483410576219797827e-02,-1.355806633451217325e+00,-1.195331741260593494e-01,5.096529478703791527e-02,-3.442823700838738149e-02,2.881740857486619900e-01,-4.924574519948837215e-01,1.845213232720614716e-01,5.570720580588210957e-01,-4.618349667939655179e-01,4.853411709924690398e-01,4.091798658182080328e-02,-6.508980333323331757e-02,-1.056224909699142039e-01,5.548258280576547907e-01,4.821279727373602442e-01,7.681530780998352403e-02,-9.347690096401765070e-01,-4.354017896507698659e-01,6.098482430543690214e-01,1.072439969343117472e-01,-3.196768861498014425e-01,6.422089193555609032e-01,-9.917102409151872661e-03,-8.445215751824283745e-02,2.782243710409910697e-01,-2.165516115689991306e-01,-2.638734207079759253e-01,1.491335463005546424e-01,-1.159423188818068606e+00,-4.162083147147375151e-01,-3.838426465465455406e-01,2.489013216929331640e-01,-6.830595531965879541e-01,-5.326591102391813326e-01,-1.934276812833679582e-01,-1.983188406344930585e-02,1.000706410170356525e-01,8.364632684503742199e-02,-1.100485587504347190e-01,3.612607274325301820e-01,4.747752412359313445e-01,7.221851263174905444e-01,-5.578404117684856445e-01,-4.029448144315030955e-01,-5.173032350186252959e-01,-1.209858548802746014e+00,1.367014252912396310e+00,-2.230028229888922353e-01,-1.848399548456981789e-01,5.799196273225264431e-01,-1.544222107939296207e-01,-7.624605719554553573e-01,7.391822646561674315e-01,-3.720572862053503349e-01,-1.914926408948784964e-01,8.910705465977896145e-01,-6.347145058053800526e-02,-8.067545948590711807e-03,8.645951642123071712e-02,2.648362411813068654e-02,-2.491389360075459691e-01,2.737239787835388793e-01,4.838276832756512880e-01,-1.290423872603410960e+00,-6.131602764864232391e-01,-4.900270910299283078e-01,4.539733143990703351e-02,-2.097951546148505153e-01,4.882942720240475709e-01,-4.447301327578851438e-01,1.658154078730294412e+00,-5.909669390824275892e-01,9.940354502277773396e-02,-8.639422419468526654e-04,-1.868452675153163545e-01,1.647822198361035759e-02,3.437360250260212968e-01,8.373742365953285027e-01,-6.062757236962690310e-01,2.534272386143281430e-01,3.083670501545827114e-01,-7.639920500868526698e-01,-1.236525952288350494e+00,2.252020846473411497e-01,-3.615559352655166748e-03,7.543226579733081083e-01,3.083510453041676258e-01,5.915066334424762262e-01,-2.364942786117114615e-01,-2.005431007751799499e-01,-1.789887573530437592e-01,5.243603234992683104e-02,2.019474557357000821e-01,-8.868255458410112535e-01,8.212514606710671350e-01,-5.652868611140865474e-02,-1.542308618127665065e+00,-5.445506551555313879e-02,3.905821039069304890e-01,-3.983760247037426705e-01,-1.854586915491082677e-01,-6.306601035176900849e-01,2.323978423173198860e-01,-3.984143857342892225e-01,4.680088899795415425e-01,-2.150777611880007323e-01,9.802294054324265371e-01,1.101279464324240509e+00,4.952784921638398591e-02,-1.493828189342575885e-01,-1.162899697292898216e+00,-1.062155763801006375e-01,-5.535063052922092330e-01,4.808954051157811049e-01,6.713257521067111933e-02,1.799851880207583299e-01,8.434201078229226489e-01,2.174914062861434960e-01,-1.007649048181523899e+00,9.363269569129663017e-01,-1.357169154428777558e-01,9.006894540469918553e-01,7.179907627452084551e-01,1.682177218997905621e-01,4.335535502401174357e-01,3.495630152721059813e-01,-5.941416527316723678e-02,2.782533567761191762e-01,-8.291785082750763314e-02,-4.296821509637556158e-01,-1.037649562820531710e-02,-1.292290917211873780e-01,3.786693806482300806e-01,-1.325570171639640048e-02,2.440154332376733848e-01,7.552210354993106334e-01,-5.872420962916902187e-01,-3.262243510464423180e-01,1.854723375246724593e-01,-4.779396227919374129e-01,5.265823369580033830e-01,-4.366536663943836050e-02,-2.067015445623352765e-01,3.144474397169524232e-02,-4.392663154968922679e-01,5.880275394388846666e-02,7.748869589206780484e-01,8.623651356066918128e-01,7.378015134824824628e-01,1.699822718698291713e-01,-5.990939919172486583e-01,-1.040967975519530436e-01,-1.110813591550136314e-01,1.945006705700817184e-01,2.687920000521354935e-01,-5.673610446555742148e-02,5.672670353621919390e-03,-1.819475008494718382e-01,1.169850862379658574e-01,3.076266116839481701e-01,4.917330126881571534e-02,5.296991197989652234e-01,1.891126923830651341e-01,8.616308030173779053e-02,-5.249832960443536756e-01,-2.099882092276212364e-01,-1.592433806241612404e-02,4.210541580203271406e-01,-9.607958511682415104e-01,-1.528784636023571564e-01,3.408967777372527430e-01,-1.201054533452318440e-01,5.221681222958873825e-01,-2.832874980449413549e-01,-2.256402886100418170e-01,-8.171359320220771272e-01,-8.584915462090986216e-01,7.325649243006584488e-01,8.615931454580644244e-02,2.345055700940568699e-01,-6.287947609615257560e-02,6.607986753582392181e-01,2.776901219624350325e-02,-6.749363964588994680e-02,-1.000040032128507311e-01,2.504260639698421276e-01,5.064677354583853042e-01,-1.500126003341104887e-02,-5.764070665795054810e-02,-1.117799669623723791e+00,5.076294039905127065e-01,6.170300896551328407e-01,5.034327599342067749e-01,8.827874875857256998e-02,-2.893640109096525248e-01,-6.175676034701068629e-01,6.321040903632852981e-01,-3.397010785069941030e-01,4.062144680307953060e-01,-2.941543470587107967e-01,-6.814187858129265862e-01,3.285092228506882872e-01,2.442025118207310497e-01,2.906263564783977404e-01,-2.837540644856527683e-01,4.866268170389294601e-01,-5.986598430693981232e-01,5.052825239466398610e-01,-2.051412899931718270e-01,-2.067919933711855063e-02,-3.854976412221342019e-01,-2.333252556827760671e-01,-8.969167082421450887e-01,5.571931104583536243e-01,3.765724283911903170e-01,-9.488674989629051204e-01,-9.175131655566755029e-01,-2.510708447806533350e-01,7.037525689297430276e-01,1.115263697619721939e-01,-1.300776530656305718e-01,-1.343798837618249475e+00,-8.035023023116262264e-01,-2.891517610945332217e-01,-2.680226172139836271e-01,2.872389036212002478e-01,7.206657028052173564e-01,-2.970242927190283599e-01,-2.700976010361145763e-01,5.480282020794036146e-01,-5.175835711090981395e-01,9.388802871741268596e-01,2.491661955200856760e-01,-5.248980921716622783e-01,-6.001983385313882646e-01,-9.176042089573194227e-02,-4.919783082861223233e-01,-3.504879918344042111e-01,-9.317942814037933896e-01,5.379850446772959510e-02,-5.065336914002451785e-01,2.448482966812744466e-01,2.041555637291692094e-01,-1.268600075225196355e-01,3.454792294441001443e-01,-1.524187720803619472e-01,8.672809968752435150e-01,6.980285819022344906e-01,-2.885441633978254594e-01,1.843852729201353180e-01,-1.357395585653265735e-01,7.812159539483487514e-01,9.581654289064925334e-02,3.774983149475505950e-01,6.072757959203231581e-02,-7.504739157832518437e-02,1.507713845819991239e+00,3.836834492178167744e-01,1.336537062516119256e+00,-1.515772757907870583e-01,-3.150071557173356740e-01,-2.407395448133058113e-01,7.060167630062823552e-01,1.047409563566042423e-01,-2.073619343326120468e-01,6.771024126580156566e-02,-4.701942685953119372e-01,6.783982456033176289e-01,-4.493823939260561673e-01,2.037958271121956353e-03,-1.228471344120225961e+00,2.801830038197531195e-02,7.611581372279930813e-01,-1.268991983765557663e+00,-2.340467863531293241e-02,3.944003770493353933e-01,6.104901999265894830e-01,9.027057621004258570e-01,1.044269795631757730e-01,5.405715742227089615e-01,-1.778021473340530012e-01,-3.256830731311232685e-01,5.250259114418056594e-01,-5.022533796848055454e-01,1.325114777373041841e+00,-1.547229521283257081e-01,9.360548982749730684e-02,-6.877957024836229838e-01,-8.511765382160009219e-01,-1.997468807414320979e-01,4.120726403676454319e-02,8.103508565568748323e-02,-7.517787017346479889e-03,-9.752713089058967499e-02,1.234126020195600304e-01,1.098019899653601000e-02,-6.905181304199935199e-02,6.237501492019879024e-01,3.885537533294586843e-01,-2.762400652019555980e-01,8.390913924683150726e-02,-3.732201149346937585e-01,2.002023763037550919e-01,9.209858790321392430e-01,-7.545488858080462435e-01,-1.484310320943348638e-01,-5.110917161541768117e-01,-4.435485019604401558e-02,2.036745491319305046e-01,1.401497014446099199e-01,-3.817940949564752606e-01,-2.100059388948668226e-01,-9.644937656722050168e-01,-2.582174573315696442e-01,8.808565856197934085e-01,-4.743218340464963600e-02,4.912589598838316141e-01,2.691134384584458958e-02,1.079218523518139516e+00,-2.523230723703742129e-01,9.639763869377641070e-01,1.133138632249820921e+00,-2.055178756532382439e-02,1.721093813749769996e-01,-9.147247911686668953e-01,-1.934714119674142419e-01,-1.293845385047635022e-01,5.837815973304141259e-01,8.979692399550722737e-01,5.054739411188972908e-02,-1.583438085141289919e-01,-3.920694413785051902e-01,-1.642439877515795843e-01,-8.036031114161027444e-01,-9.564238769052058053e-01,-1.116747850503928829e-01,-7.628940211620941492e-01,-1.702088145163128119e-01,2.797190028482015034e-01,3.224614398773475443e-01,1.053073009974875074e+00,-8.098899067703873023e-01,-7.109694986453797272e-01,2.142618339287171991e-01,6.750868814050523317e-03,-2.812578318469596272e-01,3.442398762297589621e-02,1.048467002602239406e-02,-6.919306221751221619e-02,-3.236176090077015899e-01,4.541752399402453344e-01,-5.984354743304020063e-01,4.109278314372153407e-01,-6.133517679998595762e-01,-4.892453774136406031e-01,-7.237838624143716482e-01,5.576803629235205229e-01,-3.336485269013023114e-01,6.380844315604544681e-01,7.344979423182536049e-01,9.529013117063316329e-01,3.070048307596042747e-01,2.020814374646995870e-01,-2.714406586498536722e-01,1.681537417318683669e-01,-5.623012617412747050e-01,1.828503210743315510e-01,-2.197626892446793156e-01,5.216974373190713665e-01,1.327628838090804952e-01,-5.472882598785200337e-02,-7.656207122851271807e-01,-5.739897890168313942e-03,4.146242810910866217e-01,-9.527794283856107910e-03,-7.434869161140437166e-01,-3.196566889943694423e-01,1.898019143424877625e-02,-4.337395979734455786e-01,6.249006383407434972e-01,9.156300617672712139e-02,-6.697563460577473649e-01,6.635989286333344728e-01,-3.304830089718749919e-01,4.835494722402129408e-01,-3.320700419868437558e-01,1.162418951099719044e-01,-2.690492481697998733e-02,-1.996379228839177677e-01,-2.420660643414357105e-01,-1.649441534131103684e-02,-1.086651720972456658e+00,7.899578323154272663e-01,3.645844059109901725e-01,4.555557560374861037e-01,1.004119592358806573e-01,-4.188855867932866905e-01,1.861004997266825847e-02,-4.319229146036414335e-02,-1.201049990304720705e+00,-2.315798701161354556e-01,-3.700632221817126699e-02,-3.951548147417834889e-01,1.403503402251811139e-01,5.001694227661293568e-04,-3.028967636186666312e-01,-2.387833360939003169e-01,3.972224865846162023e-02,5.725334675500695081e-01,2.730320447986799293e-01,-9.671480010436876995e-01,-1.127023003680390489e-01,-5.599093845778091438e-01,-2.240326503638355726e-01,4.504503219906407785e-01,-7.267063914692801774e-01,1.059268771764103834e+00,-4.418765224742744052e-02,4.751333295479783780e-01,2.186177836323109247e+00,-6.309797949278480589e-01,2.363151810686143703e-02,1.736066006008912810e-02,-6.811555555293000719e-01,-4.193798069107664839e-01,1.655897530320318278e-01,-1.026352276150220288e-01,-4.753419504998790401e-02,1.694917149280380508e+00,4.423647366998295083e-01,-4.054881337778968864e-01,-5.484896575373937599e-01,8.653988115538517600e-03,7.828340311013626263e-01,1.077746955003014151e-01,5.732724751046083117e-02,-5.665912790138288857e-01,-3.442498015803482359e-01,1.647396867877344573e-01,1.053477128613704017e-01,-1.364952446957865106e+00,-8.448323332712565081e-01,1.578515020633158572e-01,-6.481333960502592140e-01,-7.550269595079751872e-02,-1.251787459831923410e-01,-2.986404428084309948e-01,5.118471954953222047e-01,-2.383707290822650315e-01,2.301943654658316907e-01,-4.938528573436838376e-01,-3.918471855009167393e-01,-2.752716612580002886e-06,5.587905516041995202e-02,-7.616209555700888256e-02,8.817826493882311434e-01,-6.197635754735082436e-01,1.213638233745414213e-01,-3.847709087730002420e-01,-9.992401575747048709e-03,4.330806453843899506e-01,-8.604282101003302152e-01,-1.269173143351186361e+00,5.563195816302759500e-01,-2.646611338502009581e-01,-2.825747865545589765e-01,6.673135707117494597e-01,-3.552886855845457381e-01,3.013912338033307714e-01,2.959495066042423517e-01,-3.827391468681698994e-01,2.627145832683723814e-01,-8.824346525054574952e-01,-5.062145673012452551e-01,8.403875363694529588e-01,-8.023079294574606002e-02,1.367924037094294387e-01,5.902237442918382149e-01,-2.049525893049704284e-02,4.087913005324748245e-02,-3.163736932828825621e-01,-3.343336846748007352e-01,2.963579870903097768e-02,3.188591613459056950e-01,2.850398538675474880e-01,-7.259670088174791092e-01,6.542897223294475983e-01,2.921884494104279861e-01,5.152404515520731323e-03,-4.363459137528444831e-01,1.254960955289137203e+00,-3.541053427146579474e-02,-2.521165632697333625e-01,1.377210557410080694e-01,1.250221132540882962e-01,1.593337258073447005e-01,-5.270591990123725257e-01,-1.877455070600405479e-02,3.059667477106385314e-01,-3.026013150933575258e-01,5.322192401366120373e-01,-9.572972555895888913e-01,2.781466396048740686e-01,-6.752254278450680047e-01,5.406385922688784762e-02,-2.720494360358529651e-01,3.816266121603650863e-01,-2.468258428825156336e+00,1.214176738595904859e-01,9.924414995350121504e-01,-1.944213050023394784e-01,7.643002694480156567e-01,5.898390410989412525e-02,-4.120116857318971149e-01,-2.882577123486219084e-01,-1.408783390588566720e+00,-2.105484096218375178e-01,6.823472522011170271e-01,2.439741211849491553e-01,5.815149975096255419e-01,1.177224561558874588e-01,6.297687849913206071e-01,-2.870782762232869656e-01,7.769338065514670433e-01,3.925246510104095643e-01,-6.760792040870862163e-01,-1.484284490005606180e-02,-4.681197980136799774e-01,-1.086054281510298244e-02,-1.475421502916400285e-01,5.251545695163826188e-01,-1.080703473575218149e-01,7.446455833316417694e-02,-5.074115403165465610e-01,-4.618293787260783212e-01,-1.331877317838705332e+00,-7.256993095446483411e-01,1.340952215509483292e-01,-8.204018678040434498e-01,-5.381186699137406881e-01,-3.730418128601855482e-02,1.296025329123411118e-01,-4.484946414909390389e-01,-7.294796675000243535e-01,8.763369772505149591e-01,-3.520459073025272723e-01,-4.313894770118678057e-01,-1.420272285808505119e-01,-2.118617506009523241e-02,6.521095755656544091e-01,1.693410895091987278e+00,3.491466572704445270e-01,3.533762474448199908e-01,9.300741497523998258e-02,-1.202255819731621767e+00,1.225506322741181098e+00,1.707584677165963627e-01,7.613797701452737487e-02,1.077856322051732041e-01,4.047647059825955074e-01,-1.669934371645630300e+00,-6.802604545009174331e-01,-7.241491655118629245e-01,-1.267737011662834368e+00,-4.590881936656521223e-01,4.310858581859443317e-02,-2.804502677655676401e-01,-1.526348435153047634e-01,-8.019841149517558110e-01,3.811967252366481318e-02,-9.643415140465312618e-02,6.882603599604208977e-02,-1.910384220353030238e-01,-3.213474001071049968e-01,4.754368804282242955e-01,-1.153983608106165515e-01,3.999844244936338611e-01,1.530435722290994505e-03,-7.840080990363801350e-01,-2.304495754426669485e-01,2.035741299400307680e-01,-9.030735123383469565e-02,1.199692682949262956e-01,1.712466203371194318e-01,3.863402529806825303e-01,-2.161493235190621864e-01,9.359901374051419198e-01,-8.302590025178676614e-01,-1.650340988218693683e-01,-2.005388994678589665e-01,-7.308687966440877148e-02,-1.002106667986022437e+00,-5.195901779220465366e-01,4.306902121910443082e-01,9.917840825726785825e-01,-2.294834095599107282e-01,-1.044142833467745154e-02,7.804303491694097872e-01,4.414320403911663471e-01,1.389982094956541958e-02,1.465412279785609229e-01,-2.585848218138688259e-01,-1.932065661532894330e-01,5.304548439428400375e-01,-5.639188266409050909e-01,9.485184305508274905e-02,-9.533687732972978557e-02,-3.418742502479347189e-01,-3.811671095802912079e-01,3.230806152616092497e-01,3.641996140969597229e-01,9.785886258518476932e-01,1.948877099927811551e-01,4.601000193467262855e-01,-8.858557116068192794e-02,5.732324705992439956e-02,-8.223129711914314299e-01,9.852676457524878195e-01,1.490469484008824785e-01,-9.211115483151923744e-01,1.298162585419138981e+00,4.001001883601510434e-01,1.784761814023369531e-01,-1.849111577053162425e-01,-2.974222213998394260e-01,-3.559093409844439337e-01,-3.366959843982429423e-01,4.503811289985012456e-01,-7.124809763283896924e-01,-6.659879940610859972e-01,-3.937815248904911192e-01,5.262731028050864346e-01,-2.302989606470173534e-01,7.709733350673146912e-01,-1.617578964431820365e+00,-1.538219902722219590e-01,-2.664185873331311183e-01,3.020402054827973082e-01,3.783592482138223301e-01,-3.483248539221055484e-01,-1.247604315160124322e-01,-2.049625093161166756e-01,-1.389077707243301818e+00,-7.501273062358097821e-02,7.970636235985983920e-02,3.756730960774853356e-01,-8.508295157543845910e-01,7.138000179882069141e-01,-1.874617397931016283e-01,1.170387297976613894e-01,-2.718835167724581448e-01,2.121050447556890040e-01,-1.784792907179216348e+00,1.123127125002352455e+00,-2.599854333093530312e-01,-9.866953136367130339e-01,-4.111478948757766871e-01,-3.166612877175428720e-01,-9.727248565115888951e-03,1.191279532099100841e-01,-7.258491030870439786e-01,-2.663584664291879234e-01,1.318992056037637361e+00,-4.213010946233254617e-02,3.784766350999006074e-02,-1.162870856708857897e-01,6.756074885008976905e-01,1.380452607267730780e+00,-3.108318142065020218e-01,1.168406878802354276e+00,-8.091889674321450787e-01,-3.730519642680913545e-02,-2.918330736246820267e-01,-2.093978370694378199e-01,3.099334233726428467e-01,-1.806653580709460249e-01,2.802997896406356215e-01,1.340076598620778547e+00,-4.237553287783107359e-01,-2.326974509930811730e-01,1.119628109545973693e-01,1.644210001364842383e-02,4.625796109821170843e-01,-7.082165823716355391e-01,-1.723017305285894085e-01,7.075951239661816550e-02,4.348009119893399971e-02,4.180561873326827382e-01,-2.155666950514170122e-01,-1.217002961115753568e+00,-7.759824463080781110e-01,-2.735411945796176747e-01,-4.226578592913399907e-02,6.202988240998421610e-01,-6.161154693933195148e-01,2.659800992950266812e-02,-3.783939144582611214e-02,-1.135275104655237288e-01,6.472118501630338416e-01,-3.787159636655700878e-01,-4.377876633242913096e-01,-9.456392179954481534e-04,8.464669005198077745e-02,3.244132160224257322e-01,7.521300286745560282e-01,-7.586185494187389633e-01,-6.737435556259269154e-01,-9.749859054569898209e-01,-2.983636207671188645e-01,-3.058021838590633257e-01,7.520904047717906771e-01,2.660958376288613536e-01,-3.948703634613763835e-01,-7.795897857818970822e-01,-5.225864720110273698e-01,-6.210093047876730221e-01,6.183059488564767586e-02,-9.632778582185148597e-01,-8.494437866912996071e-01,4.416682314390963926e-01,-2.194694581891492302e-01,2.352076601434383019e-01,4.620353547867570541e-03,5.068683039844519289e-01,-8.403268598297033432e-01,-3.662670461043847636e-01,1.171578463963585948e-01,-5.108772187717851576e-01,-2.002768925693520496e-01,-8.471965726936232510e-01,-4.170453736504937670e-01,-5.179374456903930446e-02,1.822829082247164612e-01,6.330744605021156046e-02,-5.783790349726662672e-02,-4.855129275936374000e-01,-5.996133900071527745e-02,1.816255050429505635e+00,-2.192840197952274917e-01,3.850733531493313322e-01,-3.373983067824236071e-01,-5.098793341742702268e-01,4.705294203221088156e-01,2.931173516928886613e-01,-4.373263516949845164e-01,-1.403064499552717947e+00,-1.679317296055771180e-01,-4.736698871132520861e-01,9.937381936718503450e-02,-6.052963437592233653e-01,4.762982428775355825e-01,3.867424024673462579e-01,1.370981338266439031e-01,4.142345476244974622e-01,-5.350204908192712772e-01,3.431693664602677996e-01,-1.099865033186245622e+00,-4.919981066094245015e-01,4.557877309737448646e-01,-2.610749357698585738e-01,4.102425328682993838e-02,1.183656260642741209e+00,3.379566648367775539e-01,1.760939460203865825e-01,6.651020649614820812e-02,-1.343703583101094334e-01,-9.417220949460328172e-02,-4.011225229790595093e-02,-2.912486843884349863e-01,5.921243407628078437e-01,-9.381322821110066323e-01,2.615004869015977434e-03,-2.556046688233702957e-01,8.704207514531017709e-02,-1.090208080909722543e-01,-7.448970052398540265e-01,-1.900419404038362181e+00,4.984867677993633228e-02,1.351090722934637389e+00,-4.832210199980013776e-01,7.449189108551157457e-01,-5.793677447052543172e-01,5.086809276628819765e-01,2.904218915054648797e-01,5.177051247604691486e-01,1.978259074246729310e-01,1.495950106342793517e-01,-2.757277921629751605e-01,3.262440529264347411e-02,-2.647397065120372095e-01,2.934124833059206100e-02,-8.281841137876249093e-01,3.967049593170067778e-01,3.921145973077788116e-01,3.027600471783017597e-02,2.125882400010841722e-01,3.053015790381302663e-01,7.687638997678936104e-03,1.675835958724309488e-02,-9.233672346251292629e-02,-2.673057865910876893e-02,-4.085801737629469743e-01,-1.637913955327170712e-02,1.796096710754948034e-01,-1.223364060563071759e-01,5.839251808544800859e-01,-4.200492016960885588e-01,-6.458545867936986706e-01,-2.193019667465124500e-01,-6.187417097418504985e-01,-6.709306255576770184e-01,-3.912627362277340537e-01,-9.981545708156752683e-02,2.504047439280935872e-01,-2.686821520631598598e-02,4.091295940466133096e-02,1.487559693281854389e-01,3.969644953541626720e-01,1.261688603949028487e+00,1.000192590410159621e+00,3.490935895248185039e-01,1.031687691951108377e-01,7.350373652844316430e-01,8.469541151493598097e-02,9.947029168714284497e-02,-1.558599264868889556e-01,-8.770078333100976564e-02,-3.293129520326173454e-01,-1.303905706120292440e-02,-4.214629933909257442e-01,2.132398073813548123e-01,3.059514974437734236e-01,-9.982036638729103739e-01,1.878976001174083033e-01,-2.806189637597825137e-01,8.124833569021794322e-01,1.770852976518262900e-01,1.078450637367386111e+00,9.637747894412329597e-01,-6.134939639898948638e-01,3.300734080733013776e-01,2.993035854034691370e-02,-2.590049712726885667e-01,8.442577551844788752e-01,-6.488561237081511557e-01,-1.358088102296678867e+00,1.767909563998783240e-03,8.253013962234270751e-02,-8.306132500769617399e-01,1.157799215546849947e+00,-1.474381158526217206e+00,8.838158613866751306e-03,4.442542819301613655e-01,-6.779296963983980073e-04,-1.093422646631699191e+00,-5.308857117814740345e-01,8.544185943658324511e-01,-1.920244966755017546e-01,-1.098733877136114812e+00,3.326532462054261896e-01,-6.540649345065715492e-01,5.713932496276995510e-01,4.371256944683351020e-01,4.213665051943699669e-01,-3.726010818449019268e-01,-3.484495953624146547e-01,1.611875659411582395e-01,-1.429433448516787275e-01,-7.369765990875986050e-01,-4.226398678590519986e-01,-3.799948317873783621e-01,7.574639662751363189e-02,5.091907173260947772e-01,-5.283802499694434385e-01,4.329083022848879692e-01,-2.518651374349196725e-01,-4.348985825772154201e-01,-1.567583654907297674e+00,-3.121053893567731219e-01,2.742623576587408310e-02,8.106798082564938002e-02,-1.027450245143966212e+00,-1.454480317531010349e-02,-1.846167121151906509e-01,-2.991399794252681908e-03,-8.065479773866487401e-01,1.604411126904042306e-01,-2.500272615744914551e-01,-4.054723067359498057e-01,4.936924937546527947e-01,-8.871967638315891858e-01,-6.871238284115582795e-02,-7.905776467592152690e-01,-1.336568007226375532e-02,4.562374580028214638e-02,-1.173798148197342656e-01,1.001917585725781434e-01,1.308765843154132691e-01,5.520643825961286666e-01,2.060076806146420747e+00,6.480886001216767944e-01,5.468079238061420710e-01,-3.451300984015674977e-01,5.197730255774569708e-01,5.634392077522846348e-02,4.619498164260103790e-02,7.798365221181943197e-01,2.164655800277733022e-01,1.831597343389512744e-01,-5.297049130318433052e-01,3.719824343864371885e-01,-3.290593572847116954e-01,6.428067733008741014e-02,3.751891156508916358e-01,-4.141413106326437554e-01,-2.419594954376634577e-01,-8.173427895426029766e-01,1.085759488935843731e+00,1.013215555346154428e-01,9.777981334693163218e-01,-4.805321859382462035e-01,2.647161356559710743e-01,2.171630719022088207e-01,2.362699759717568071e-01,-4.877189200954343273e-02,5.521127023928585481e-02,-1.489796070540565065e+00,-1.200100800591424655e+00,4.180539269216404508e-01,-3.340094152841597830e-01,-4.415818146427524238e-01,3.364846762613938891e-01,3.192592606891454105e-02,2.415378241955813687e-02,2.742528160688024741e-01,-9.211680502081034949e-02,3.709598428035794093e-01,1.080677024506748324e-01,-7.083986872969880166e-02,-3.004252667782798536e-01,8.888906840776254759e-02,-2.231281100516772573e-02,8.495068039068273125e-01,-1.859650688130685264e-03,-5.556437695571910668e-02,-9.559082567745228465e-01,4.318194462879494933e-01,-7.102892549394699273e-01,-7.400052284510082456e-01,2.826488692170470718e-01,-1.046088818038834578e+00,1.131929905214482460e-02,6.187976609759829882e-01,-2.084946985670482200e-01,2.493832699570629197e-01,-3.675996040765244222e-01,5.628702652315147742e-02,-2.437811175775905226e-01,2.067009834606797491e-01,-5.067244862553067497e-01,1.163045751880190937e-01,3.383442984434874568e-01,6.258711883272688459e-01,3.468419803800141810e-01,5.816185186258427953e-01,-3.587604694843770092e-01,8.146375012615983957e-01,-7.835067206230096337e-01,4.839250685031145083e-01,-2.295868281616617601e-01,9.263245692042553214e-01,-1.150969320521879058e-01,4.333912063302329809e-01,6.524808812756998089e-01,6.419562241450124107e-01,-5.916210868754385732e-01,4.970892406365946536e-01,3.990105951881612323e-01,-7.229889172712009593e-01,4.304710535433169949e-01,-6.879115730394755879e-01,2.929904508880413760e-01,-1.211561666599691112e+00,-6.761673017121275775e-01,-8.598464372867719030e-01,2.168120707568662875e-01,5.061132003568008519e-01,4.530748342262498340e-01,-9.521440370495939942e-02,6.176259796246854616e-01,1.853800965298955938e-01,8.051854491258649826e-01,3.269220080939838069e-01,-8.207722894252018619e-01,4.960042559555277730e-01,-5.088383192859646798e-02,7.611159338571601984e-02,-1.132857827846834586e-01,-9.927138945935245484e-01,-1.985143943700936608e-01,4.075237272005885480e-02,7.052254158240919280e-01,-3.764401082667909737e-01,-2.165179620928953663e-01,-2.759331229595673451e-01,-2.986127497521250951e-01,5.566902586062537350e-02,9.335901188399994832e-02,-1.468743493390490817e-01,5.285125076676926437e-01,2.250359526605762162e-02,-1.188543149813776623e+00,2.420546005443401927e-01,1.283843018589314773e-03,5.288937767883654384e-02,2.037892589319808268e-01,8.687750345641438443e-01,-6.881903178024230128e-01,-9.067875306656499046e-02,3.415825253678991813e-01,4.686017234276823040e-01,-4.629520664279069275e-01,-7.693981572706087846e-02,2.703203107258556059e-01,-7.385524426016205624e-01,-1.922448934478398486e-01,6.311449376365397823e-01,1.374136506990939754e-01,-1.909165662732953961e-01,-6.513394676373478465e-01,-1.344659149063227588e-01,6.276133291575427542e-01,3.964465738074544887e-02,4.921803756190951673e-01,-9.292431480910006147e-01,-2.833288561386838600e-01,1.261123340143594840e+00,1.106751885264397814e-02,-7.019496889585733479e-01,1.108403880715100875e+00,5.120547044967992401e-01,-1.820351032827321747e-01,-1.587547691131539207e-01,-3.704157164577383948e-02,-3.390262149279681392e-01,-7.179928127523167447e-01,6.593141261135317954e-01,-5.856320078615930708e-02,-1.005233950457357750e+00,-1.091916679816868629e-01,-5.534373930287015408e-01,1.881039790553342972e-01,-1.209440647395260693e-01,4.289028193472857464e-02,5.913153298140554348e-01,2.986793067679169855e-01,8.905825775366632557e-02,3.305244459334243934e-01,1.961515684969612205e-01,3.861995434842075414e-01,9.146930880811497688e-02,4.519990117566441423e-02,5.872847302120183244e-01,-1.865922806990326643e-01,2.536264848761793714e-02,-2.615098100598802766e-01,1.412745508259039440e+00,-6.925408123204179756e-01,4.594853521804115326e-01,8.300943188199663147e-01,-1.225282195585559591e-01,-4.235476904067121406e-01,1.386881617541034332e-02,9.538607640444700664e-01,-1.857679476042039535e-01,2.359787673369734967e-02,-1.351732632461151440e-01,1.151668049552079243e-01,-2.584980376432859939e-01,3.163880513798071337e-01,-8.998995208039590743e-01,-1.144195991559088021e+00,-5.715141381930963771e-01,6.063076469210622044e-01,-2.939993810559980991e-01,-3.088735960669065639e-01,4.711108440764717464e-01,-1.850385607179404202e-01,2.147541435842578450e-01,-8.607210990261525418e-02,-1.229419224362648499e+00,2.691038573981764381e-01,-3.304538480343079399e-01,-2.753159617369450515e-02,8.748003325847096834e-01,-2.493898684682584466e-01,1.716513221227237707e-01,1.638139309851221470e-01,2.242763727968282994e-01,1.236318379414318575e-01,-2.823650788980713866e-01,5.278156126208661814e-01,-1.084590727293663071e-01,-9.105177136201640931e-01,1.592063623161193431e-01,-5.433231931240622981e-01,-6.742042500827667428e-01,-1.278126730881248729e+00,-5.395137862462932032e-01,7.706765143313219768e-02,-3.643021824791237151e-01,-3.043973491623053196e-01,4.431344024523019010e-01,-7.369265241829867086e-02,7.041971759155513100e-01,-4.670823083241549822e-01,-1.246676677619038331e+00,-1.812890556815777501e-02,-3.028233450530009030e-01,1.325870481374607501e-01,5.488974204409368118e-01,-9.917337447371570025e-02,-4.832789919260051525e-01,-5.623634538903976576e-02,-6.847323766364177278e-01,-1.963697441554483336e-01,-1.571213026359292941e+00,-6.371973586831775060e-01,-4.923034493934486111e-01,5.256685576513225877e-01,4.916415359592968271e-01,-5.608204188283141267e-01,-7.031868619800357711e-01,-4.084274177621636803e-01,8.250091261130424458e-01,-9.643705725810416407e-01,1.963870233721641267e-01,-1.503600352180156988e-02,-1.367488819379103937e+00,-1.903776177496423472e-01,-1.478639110458231487e+00,-2.128712634512359633e-02,-8.312871869891343968e-01,-3.121101442750371172e-02,1.463027308677510574e-01,-4.296920073764227965e-02,1.395554742645677138e-01,3.005634552871992438e-01,4.650464619542850385e-04,2.123989845913470953e-01,3.188116447563388856e-01,-1.745773179098213390e-01,-8.572517727461759218e-01,-1.537570482801219773e+00,5.023926425035095678e-01,2.693169362564242220e-01,5.561581643335823388e-01,-3.240742962988696352e-01,-1.177173683301182272e-01,1.054646181711007769e+00,7.904935470024879729e-01,-6.225795939634696241e-01,-6.196536634287166390e-01,1.834516858448569931e-01,-2.212773883393014118e-01,-3.754586521483883610e-01,-1.240652564795700907e-01,-3.208629201593953678e-02,6.358836135475106621e-01,7.251443048880011621e-02,1.108096990779507296e+00,-7.730880090681480077e-01,9.052970505534455592e-01,5.000013952588024946e-01,1.488237573018561140e-02,2.339239094402532915e-02,2.445966795843126651e-01,-4.429656445581331425e-01,-2.625377383578750279e-01,3.493513753180712000e-01,7.315499828626907952e-01,-5.740032289666585630e-01,1.863034596889013572e-01,-6.268843477622504379e-02,-2.228884205995976808e-01,-5.235699657738100976e-01,-1.956174623342273322e-01,5.675179666379495114e-01,-1.106011202407867905e-01,-1.313905335515282158e-01,-7.306746097410552476e-01,-2.258216422574704091e-02,-4.924161640679527441e-01,-5.579295214978904349e-01,1.275772878318425230e+00,-7.224000942147372761e-01,-3.138345765972309631e-01,-7.522403981104845982e-01,-2.989644236819830603e-01,3.042706257017714355e-01,1.237102861775794871e+00,3.912200860179064210e-01,-5.976131726775308906e-01,-8.147213287936494464e-02,-1.925406292516780304e-01,-2.524150886285829194e-03,-8.825365541618095389e-01,-1.911201504374842042e-01,-1.420751447166530568e-01,-3.225518498731062000e-01,-1.699725838159263924e-01,9.773258723411882842e-01,-1.561821434956815746e-01,-3.644938756425710191e-01,2.466031768488860243e-01,-6.541955660949489992e-01,6.758822050257473624e-01,-8.271557380352154154e-02,2.182117942081670259e-01,-3.641125749323109728e-01,7.497787136302686006e-02,-1.649320950724316170e-01,-2.196382412162642128e-01,1.085404901530909960e+00,7.016207818575957988e-01,1.076336558411117861e-01,1.359407516006101990e-01,-7.208849035348915413e-01,-3.148632957928573228e-01,8.695339957297074651e-01,-7.251551461578052971e-01,-5.146630415120789781e-01,-5.440466711215889983e-01,-9.545179076332883650e-01,1.617333490306137045e-01,-7.534838292767512824e-01,-1.575516033318353770e+00,3.724286620115762614e-01,-7.424614305020232896e-02,1.812572683600483653e-03,-3.447576680218878559e-03,2.638281584832029014e-01,1.669232282533590975e-02,-2.718488521225377874e-01,1.050373402776589860e+00,4.891800614160127791e-01,-1.783204148811788348e-01,-3.572284598767043740e-01,1.254817941858080710e+00,8.258644656984230892e-01,7.415011651769392031e-01,8.380884621284132030e-02,1.316578122499428294e-01,1.564608318322425751e-01,-4.759373022264432596e-01,-2.085105361878482055e-01,-4.891307142535274155e-02,1.506717360132800110e+00,1.282350513826490124e+00,-3.761054188697455225e-01,-4.894973197126388786e-01,-1.725633415342155419e-01,-7.709163369849593161e-01,2.594203278848942751e-01,-1.083890800315919112e+00,-8.979898770995315971e-01,5.284713565467920038e-01,6.108093737130958489e-01,5.606904409418680957e-02,-8.784640272392419957e-01,-6.558028953374098191e-02,-7.577535827370231181e-02,8.091855016248939991e-01,-2.751501984473164741e-01,-5.265956469702366693e-02,4.366138433782709161e-01,-8.668154025373488170e-02,-1.738221416685556582e-03,-4.151594056767997087e-01,7.983451834819697002e-01,1.632686534017019631e-01,-1.521060322254217528e-02,-5.621732075037378928e-01,4.738426463818226075e-01,5.004793107821243758e-01,1.143844758533494980e-02,5.273091202946170175e-02,-6.612285974541730615e-01,4.896284556351339634e-01,8.455687753004900165e-01,3.375711406382864155e-02,-1.355586000534658719e-01,-1.640508831753349217e-01,-4.234131209933825191e-02,2.433970575749492271e-01,-4.607870717682339690e-01,4.437762960717919758e-01,-3.912140989664386059e-01,4.919089473396089929e-01,4.321244369232112859e-01,-9.546597870627668847e-01,1.349580333528774823e-01,5.502629430580942005e-01,4.563775598538416522e-01,2.042762936642337768e-01,-4.992453471005238175e-01,-5.371428611066785264e-01,6.600179368113274769e-01,4.691006353554371122e-01,6.381147888057571160e-01,-1.691368935337233648e+00,4.114734592334533536e-01,8.316085527858365634e-01,6.024903093213390681e-01,9.375220606133309875e-01,9.747103160742673911e-01,9.257820396929559992e-02,3.373548344870733739e-01,8.451450588515904139e-01,-9.719742059075184848e-01,-5.187142308231561527e-01,7.510913610629958992e-01,1.739130528045846058e-01,3.798215457432926323e-01,-4.291362073485839312e-01,-2.862725793488394288e-01,2.974133913029633480e-01,3.895937660731255137e-02,-2.995327944661710928e-01,4.125523852270880365e-01,1.508488536634566002e-01,1.012383899240963059e+00,3.804315797312052272e-01,6.871101196403717193e-01,3.090179511276498481e-01,-7.725111747471040680e-01,4.559970298449012027e-01,-5.054136482851301349e-04,-1.095717799620169464e+00,4.945184320840571024e-01,1.172846208897821985e-01,-6.640700715893982364e-02,-8.075435335048908314e-01,-7.054381374333031779e-03,6.634513909944627086e-01,5.329653076961522462e-01,-2.964814609182002125e-01,1.877533884667701436e-01,-3.475103816602183593e-01,-4.082553227481128810e-01,-3.138767718628453496e-01,3.658806288290709086e-01,1.167357689963011147e-01,-7.011685942945165007e-01,3.113706169731781381e-01,-2.822454111616250552e-02,6.549296656700948072e-01,1.140040729531204278e-01,-1.127709456605574534e+00,5.692928989458264644e-01,-2.493742313967523272e-01,8.678763445302760671e-01,-5.145523390688436782e-01,1.364079111895719620e-01,-6.728402902774747174e-01,9.388119740358041865e-02,-2.594712349946750041e-01,7.857078227928407377e-02,3.542066179023102834e-01,3.563218126788276208e-01,-4.733719117697023915e-01,-2.895175328590097741e-01,-3.762684418545592102e-02,2.183239489160722080e-01,7.824989665546028261e-02,5.818533442326772470e-02,-4.892757134114762430e-01,4.297042202793172061e-01,-3.652879687770699269e-01,-2.595095182048041682e-01,1.300878150919034137e+00,4.401010825560264239e-02,-4.191537355310959723e-01,-6.950810530030217260e-02,-1.564925939706304781e-01,-7.089701721304166870e-01,-6.473540458240234670e-03,-1.907163265632060289e-01,3.901808515466566041e-01,2.060345182850790158e-01,-2.748899184821068098e-01,-5.896235534324468786e-01,-1.275846949394526114e-02,5.475937027076961394e-01,4.785032614958326658e-01,-2.362114920353075576e-01,5.405842427561740049e-01,-3.609955951917936390e-01,-5.273207796484451204e-02,-3.354299393095559467e-01,9.753607269379996336e-02,-7.923638065500732131e-02,1.903887221657409035e-01,-6.245837612555924512e-01,2.338152638021540886e-01,6.504714366720679708e-01,-1.972357453878088515e-02,3.574842232133317865e-01,-2.555999951784850288e-01,-5.475135673999994568e-01,4.101154804138819054e-01,9.936797059533171161e-01,7.727589265381120676e-01,-1.414876852817360253e-01,-5.809214485402707656e-02,1.734468626521110113e-01,5.458325061752067331e-02,-6.092153427656810116e-01,-3.640560960365005760e-01,-5.209604670619844002e-01,-1.322033955462452726e-01,7.442590643097958363e-03,-5.124101406878216469e-01,-5.003673234320333840e-01,-3.678395034578362255e-01,-5.890235432192407750e-01,1.355758966457244197e-01,8.374014576142130295e-01,-4.610254795608913492e-01,-2.866622805111582739e-01,-1.265655261211502847e+00,-6.633545780956777715e-01,-3.669960878103402102e-01,1.134741254161923951e+00,3.093528962881541070e-02,2.768155341079625575e-01,-1.312434019524529649e+00,-5.586796403812980261e-01,-4.911830473035855849e-01,5.061466563023546694e-01,-3.720422873137876202e-02,2.032120546858352250e-01,-9.328571834366360116e-02,8.158476299495036332e-02,2.359928120654994910e-01,-1.067983813105842339e+00,6.468260913061394390e-01,-2.217488325889366063e+00,-2.540323190835424572e-01,3.021520157058638634e-01,-5.834564377220696763e-01,5.383346682935141736e-01,-1.920948125351011337e-01,-3.423726128016016945e-01,-2.747004664994483480e-01,3.793080080877950233e-01,-4.002662708298080907e-01,1.404178729821046502e-02,2.830956157130888329e+00,-3.488615764998732605e-01,3.003475367083398295e-02,5.464745440981394475e-01,3.088356609166504896e-01,4.919777471606937014e-01,1.866318723607641172e-01,1.134927237902413760e-01,5.446274885915385749e-02,-6.798324821200638080e-02,9.022352313901563226e-02,-3.728688927877583659e-01,2.497170578448995593e-01,4.129847215977351382e-01,-6.582946764158954522e-01,-7.449604553094261172e-01,6.970543589953106522e-01,2.597554906407318343e-01,-7.470201372257530004e-01,-1.743914266381382805e-01,2.139069941784302042e-01,-6.828121101145504523e-01,4.747884724700348613e-01,-5.755979682592997637e-01,-2.340333835853156130e-01,5.179216848145258567e-02,4.331002964310921022e-01,4.433842178506931797e-02,-2.776941212374522960e-01,-1.603462077525348028e-01,8.275826187496108099e-01,4.343451762507624103e-01,4.506509156133154392e-01,2.265766596122668064e-01,3.075543449303399027e-02,-2.340308847044096363e-01,1.024436703591984632e-01,-7.711487401124629548e-02,5.735379455423859074e-01,1.498118741392693742e+00,8.797289374952913521e-01,-7.800045573480431926e-01,9.332194353217239113e-01,-3.135691335372083888e-01,3.587188359251357594e-01,7.100284471733400715e-02,-2.399158977395020875e-01,-1.950642914551518337e-01,-3.681804193489972010e-01,-1.622520632051048994e-03,-7.651818965030783293e-01,3.290832072451570500e-01,7.312633390255487420e-01,-1.986583009917367859e-01,-2.090025517520133769e-01,4.400558723977087694e-01,-2.369305200629598027e-02,2.361625580266065172e-01,-4.210580153435061757e-01,-5.274775358952683568e-01,-2.741991198000026109e-01,-4.423737846645540706e-01,4.849974963563519204e-01,-1.337917353988544500e+00,1.099019498767216940e-01,-1.293348664447066532e-01,-1.214819125012406853e-01,7.904565311018848378e-03,5.306488464015055584e-01,6.100059813399146685e-02,-3.493460692937777612e-01,-8.231716323619033826e-01,8.717664452340264658e-01,2.197812251780459358e-01,8.013424840030476670e-02,-5.659968837181466039e-01,2.519136859950555363e-01,-5.785669809995385576e-02,-2.338037169997997933e-01,-5.511833350342675297e-01,-1.418065278832139064e-01,2.016480230905089710e-01,3.033320891300285149e-01,-1.128502617465201086e+00,-6.397194747767486200e-01,1.998148806181275494e-01,8.794312416916583164e-02,3.617654555967805274e-01,1.194205913768141780e+00,2.547629130090737770e-01,-1.541106085069247067e-01,4.206940417259791287e-01,6.373478907813111549e-01,5.333993090132276710e-02,-5.322272062334301168e-01,7.959465819992264102e-01,3.837248593750693382e-01,-9.373387657172956855e-01,-6.761587010474836548e-05,-1.453110467746902557e-01,3.532071317355839901e-01,7.752008414850152240e-01,5.676635656366615379e-01,-3.309503238582652829e-01,-2.889954388616976511e-01,3.503367076563485005e-01,-1.724131130554825558e-02,-1.031702291340563238e-01,-2.119466390196176990e-03,-3.257967962363453318e-02,1.069870846962929445e+00,-8.133822657626046948e-02,3.498737846964463660e-01,7.109176431027544041e-01,2.279895777766404591e-02,-8.806758550963873500e-01,-1.005891403244390525e-01,-4.314369909950883653e-01,1.325653626257578266e-01,-1.189364188938444311e-01,-2.739374465721070018e-01,9.219905064901876002e-02,1.433511270911100033e-01,1.103689471944625661e-01,4.307077631182734678e-01,8.583607058051719862e-01,-2.578531027188382119e-01,3.676416399903467691e-01,2.543830191804422047e-01,-2.999497768713035306e-01,4.211246186736337105e-01,-8.828190565975810866e-01,-8.867142196734387749e-01,2.740738462570052603e-01,1.491726583300008624e+00,3.526679185100796698e-01,4.477512520059965390e-02,-1.721852738238109359e-01,-1.142038127923945767e+00,4.031269952067420559e-01,-2.372164032550395929e-01,-4.021110920159920443e-02,-1.253486018551786541e-01,2.217061368992979120e-01,-2.656659993797021446e-01,2.999799406724526496e-01,-3.460239392462029495e-01,3.717738968124129073e-01,6.789926429554499210e-01,7.831564597000169048e-01,-7.162918764463609422e-01,3.243074775729017922e-01,-1.011065880529118943e-01,-3.422221738541463831e-01,1.967245991186122311e-01,1.325761737175409072e-01,-3.912814668398677531e-01,-9.465700789856484887e-02,-2.949217389476483930e-01,9.232327710464932613e-02,-6.936619284828030585e-01,-5.191684582194631969e-02,8.798256071971622960e-01,1.889964380450715464e-01,-3.999028006378168021e-01,-3.435454775778167269e-01,3.503331084334236345e-01,5.231521158502237812e-02,-4.383918888412314252e-01,2.209758680597337377e-01,5.637959141207394415e-02,4.278981944878930688e-01,-4.071440199395083281e-01,7.572450948766040746e-01,5.155510031464696601e-03,-5.026959647960577149e-01,1.508311944444026276e-01,5.751324382870172114e-01,8.049801337488530217e-01,4.430396376473945408e-02,-1.755349196563758124e-02,1.336374859990731023e-01,1.489517775965640452e-02,-5.541556605611107633e-01,6.946929745836194492e-02,5.719485147927869662e-01,1.142065665310838252e-01,-1.987895899509043440e-01,1.801831886250299108e-01,-2.475370890921138878e-01,-5.023302435927418097e-01,9.079080597114889961e-02,-4.030662689845611601e-01,1.473473021440244946e+00,7.082603969181435755e-01,-2.251988877976905667e-01,-2.725621677936150844e-01,2.839271473810291851e-02,1.143969022635082100e-01,8.283763840389818042e-03,6.257216981473365247e-02,6.964053726060012162e-01,-3.605526521260186135e-01,-5.961029284667827138e-02,-8.863391682795048743e-01,2.157617555274853882e-01,-5.852925597109258637e-01,-2.954974130777658359e-01,9.049581708694741378e-02,2.058222333479204497e-02,-1.022866443551318172e+00,1.014029438805848837e+00,1.233951223008917797e-01,2.294362569427400855e-01,4.831408001242383787e-01,1.544088497868388421e+00,-9.400314116659962138e-02,-3.696050993267470108e-01,2.193259373800677536e-01,-3.529054498417039110e-01,-3.937347541360042835e-01,3.958790376497764996e-01,7.030029245584605846e-01,-1.162433728639344244e+00,4.099161916975505721e-02,-1.474902059572877455e+00,1.050168622696061038e-01,-3.134713807546920389e-02,-1.318705609936374756e-01,-1.418888160462529635e+00,-3.741616734668416488e-01,-3.368534125497577580e-01,-8.173352824646461512e-01,7.893980654966920030e-01,5.813709231043787673e-01,-2.991355888766504822e-01,-3.815937205582853320e-01,-4.084815460482496552e-01,-5.933233887177538080e-01,3.535140014273233655e-01,1.417646011735149703e-01,1.370535760442776474e-01,-8.492411335723197841e-01,5.974615703156455071e-01,-2.906200825990806202e-01,5.179903144912194612e-01,-8.681344005239899353e-01,5.154249503544917621e-01,1.128886412206780571e-01,-9.035974091271090636e-01,2.178271567221931604e-01,-2.020396347261245451e-02,-4.341579740476961824e-01,2.735070058068580501e-01,-5.573118229714859595e-01,1.631005949160820034e-01,-1.591498582507401838e-01,-4.523374879058070785e-01,-3.209450769665225800e-01,-2.585066800995206027e-01,-1.647288222399548654e-02,-8.911298126563605981e-01,-9.308976478619863659e-01,4.783233937433027938e-01,2.838412587810965060e-01,2.598112771047262348e-01,5.026535781734601249e-01,3.193449511817597619e-01,4.418977191951598861e-03,-2.589162420210129947e-02,1.423432786168369046e-01,-3.716010606681346418e-01,4.094435854289471544e-01,-8.392982584030275195e-01,2.365057002684534115e-01,-5.794696978752341687e-01,3.406369991603790948e-01,-2.112708117156385582e-02,-2.045812872738999276e-03,-7.636079215837250356e-01,-9.347440040256235205e-01,7.453260764747928757e-01,3.023965156464071269e-01,-2.660835101217373100e-01,-2.711863277577186149e-01,-5.031378663438551557e-01,6.943499306276453009e-02,-2.369160331398966479e-01,-5.427755581627421444e-01,-4.142125589530508134e-01,-1.880237194444939752e-01,1.264826475316873367e-01,-7.662537675671210469e-01,1.237592563486693623e-02,4.206611441890167891e-01,2.871175547560363417e-01,-2.041987177387390162e-01,-8.404554768908497620e-01,6.380212863128215117e-02,-7.196095744649604331e-01,3.361100895584510084e-01,-2.858524171212565856e-01,3.969232258045251455e-02,1.598484506287606854e-01,2.660718406398621116e-01,1.109897957652015821e+00,2.183247336463383648e-01,6.821491100068435287e-01,4.642050232349789196e-01,-7.280465331639902615e-01,8.339596641609070549e-01,-9.059487606979428342e-01,5.205978776753981130e-01,6.129159673717494705e-01,-5.593917413455014032e-01,-6.633150346545197973e-01,6.879123171873308129e-01,1.510905748961936454e-02,1.399518881145870586e-01,9.423936769305019112e-01,-1.042361420068561167e-01,-7.046716653369268224e-01,-1.680989857327120918e-01,2.857244792104513542e-01,-4.801450664500760968e-01,9.798992224466329670e-02,7.113240782649081495e-02,5.249535559337806800e-01,-4.391254242108836442e-02,-5.268096173758763934e-01,-7.998353075018226344e-01,-5.554550160380656854e-01,-1.436833184259379836e-01,-5.541941143290865512e-02,-3.434789124256571458e-01,4.604736875583187450e-01,7.575793511933943680e-01,3.938857407118005055e-02,7.670664781821076583e-02,4.602357300071293067e-01,5.438520200627038337e-01,7.718515585847921523e-01,-5.941900934690545061e-02,-8.518377069897344889e-01,-2.359795689043545086e-01,1.987492154320691720e-02,3.711094530581209895e-03,1.168230816260858868e-01,-4.332099117551767298e-02,-2.992450349410732402e-01,2.929833089229101351e-01,-5.371501583407695124e-01,-5.953040677132730163e-02,1.001428990077072312e-01,-2.192540447964623218e-01,3.772036433973482983e-01,-4.809691511527572350e-02,-1.409641718670361088e-01,-2.473988402795549435e-01,-5.838207621906154471e-02,-4.212984294452477574e-01,-1.181316294698306457e+00,1.006905961606147759e+00,2.460852412613393769e-01,8.975123796003580123e-01,-1.637609266128923768e-01,9.186334751397860765e-02,-1.359783286388822343e-01,-2.513055772008020439e-01,2.197929227163900601e-01,5.333396402347204829e-02,-4.172633809943079308e-01,5.135480381839333530e-01,9.218196070249704555e-01,1.125595342116689324e+00,-4.747168270507891308e-02,1.087730488886865965e+00,-1.297989597609504886e-01,4.973443502598495769e-01,-8.301595988665200210e-01,2.019558136470487458e-02,-1.205569204842084352e-01,7.384332303067444592e-01,-1.990727345564734518e-01,-8.471187501562549294e-02,5.516356031754239275e-01,1.067079603814756750e+00,-6.317745226629320476e-02,7.179718798322823892e-01,5.424551171512729253e-01,9.950142492536758754e-01,4.142361573314129464e-01,2.369787784571433242e-01,-1.423122200671207149e-01,2.240298369724214034e-01,-4.976896879227271087e-01,1.017362354836292559e-01,-6.328134064532250358e-01,-7.511633882458484957e-02,-5.538344951165728725e-02,3.299174131715236769e-01,1.474949553450609907e-01,2.111196449225999361e-02,1.069015693521717797e-01,-5.021173586940332056e-02,8.505600470043774008e-02,-5.917825909383408467e-01,-7.777353014302504919e-01,8.832710196713573492e-01,-6.372261215630270481e-02,-1.036903076888127245e-01,6.254590307306925334e-01,-4.846890165570467979e-02,2.679578133393926975e-02,-3.657618112993294979e-01,-5.478254214237097131e-01,3.363150539156335439e-01,-1.430217084117802184e-01,3.980593924903668146e-01,-2.325625181055304691e-01,3.616570442344987403e-03,2.337817510990037873e-01,2.417765862817119193e-01,-5.149067751881722943e-01,2.580002030676316616e-01,1.713017700951493250e-01,-1.033287810776662985e-01,1.631644086052393972e-01,2.133293685499182968e-01,-7.751663853312410479e-01,-1.855451691110202722e-02,6.261824414485434032e-01,-1.768492620555754680e-01,-6.544405067662968367e-01,5.255280345058027658e-01,-4.206765988474576723e-01,2.225275090101698494e-01,-5.088925948739722593e-02,4.614780035112688028e-02,-7.811741480003620008e-01,9.472821846709995885e-02,3.347367577665941174e-01,-3.871748490915078583e-02,4.991837518845250454e-02,-1.996673822958574818e-01,4.186695022944350586e-02,2.530014383647206100e-01,2.366342413636099429e-01,7.464635719611301123e-01,-5.318056580324178606e-01,4.855299554259503436e-01,-1.225114968792008208e-01,-2.078708759704423759e-01,-3.871798327159194919e-01,-4.710490143788149675e-01,-7.053261479145706003e-01,5.169822280346759308e-02,-1.452553777006628799e+00,5.919233016900218303e-01,2.987390949739422430e-01,-3.054343770642224953e-01,3.812579353719721675e-01,-4.739237309530456299e-01,3.075949181744442318e-01,4.259437212149876917e-01,9.572169543459818630e-01,7.785503285637924986e-02,-1.907820243593029985e-01,-3.688948922754337056e-01,-1.870098452540008005e-01,7.070726222393834970e-01,-1.696220397525687387e-02,-2.954027787481213752e-01,1.378944872424427408e-03,4.493449450985094185e-01,4.245371355851960127e-01,-7.269205167354441111e-01,-3.761001806887366294e-01,2.593351789513498873e-01,1.490606468134511919e+00,1.584486042624720925e-01,5.119956308751655305e-02,5.029813800137814539e-01,-5.210195913057213968e-01,3.521952331421130955e-01,2.769776627956480053e-01,-1.856337438656067429e-01,1.392682966123532484e+00,-5.470736900731583141e-01,3.957683636745821243e-01,3.499048749275994186e-01,-3.309954062173912637e-01,-6.092017362357329269e-01,4.720400049019781163e-01,2.553070770030708703e-01,2.516229923699041526e-01,-9.317837009763890732e-02,-6.781908649630723485e-01,2.994524876237605326e-01,-1.164459928455346738e+00,-7.881312689465517218e-01,-1.002757981795544540e-01,2.664425435351089333e-01,5.451498251585391586e-01,-8.909806034098131100e-01,-4.790219746094801501e-01,3.657179638382393461e-01,1.969176549263181863e-01,-2.585027574498791614e-01,-7.286546126965222359e-02,4.059464862821490216e-01,-8.642090797881207126e-03,7.165553791301702002e-01,2.117765307589132284e-01,-5.717396800376064459e-01,5.876340993443722738e-01,8.136383413399307374e-01,-3.067541321524787645e-01,-1.342357255043133760e-02,5.832839046919153780e-01,7.200843199155692043e-01,1.281775001617208254e+00,2.346374723021403264e-01,-2.983361760235803684e-01,-4.102432133220696997e-01,-4.622977655973727062e-02,9.669457407817419470e-02,-3.792791906775352939e-02,3.315231526769570891e-01,-5.728178744630626484e-01,2.614017442173661165e-01,3.002727113735541020e-01,1.351932567711713329e-01,-1.402568684440749669e+00,5.131032269790802847e-01,-3.449282037201674700e-01,4.583790940833860905e-02,-1.146666967404572635e-01,-4.233759875453345090e-01,3.981529696865614976e-01,-6.117328113186333294e-01,-2.460288326776894907e-01,-1.807579736799619363e-01,8.276260995032488355e-01,2.638769162920701072e-01,-3.212576551813091374e-02,-7.348071933245665655e-01,-6.874743611625345752e-01,5.640001631561336604e-02,1.310339584152235004e-01,-1.819708771821527127e-01,-6.168236615030202596e-01,-1.691508486586578153e-01,1.009805066883564750e+00,-9.358509882003203106e-01,1.280149536826674872e+00,-2.470034270623837069e-01,-7.094255105784976756e-01,5.039295533123674398e-01,-8.509380776973572702e-02,3.341527753403584766e-01,1.194428819623027660e-01,-6.931964866805185865e-01,-8.645507523706890129e-01,3.489521752663198029e-02,-5.120670449434394644e-01,-8.472574992224811419e-02,9.137405038140136160e-01,-1.612482489465904445e+00,2.760796408444710082e-01,-2.390978130093248527e-02,-4.378945292767443820e-01,-2.662581965825139285e-02,2.966180597315116185e-01,3.814372049126428521e-02,-1.109191183499417949e-01,3.138512426876735595e-01,-1.226960198851964723e+00,-1.230798257924284045e-01,5.371612604468851693e-01,-5.932331855983419971e-02,7.656504591342166814e-03,-6.335193996170593866e-01,1.796265031003110579e-01,-6.365707244730244019e-02,-8.516442414001484940e-02,6.678028628955061385e-02,-1.829623239806933976e-01,1.836550588946603557e-01,9.129214911354917028e-01,4.670621515454942418e-01,-3.090692350283320011e-01,-1.395453267110443374e+00,4.164996120543499464e-02,-6.845157024205044127e-01,1.140688882311583496e-01,1.355922638587503115e-01,5.750774200867912094e-04,9.456347360044661254e-01,-5.885971992926960494e-01,-7.341290110063982688e-01,-1.415108754853315332e-01,-7.991852179690532576e-02,-3.661967091511890704e-01,-8.643557953642911906e-01,-2.230965784601617874e-01,8.872790385702025162e-01,-8.201173942223960456e-02,3.379688411752403421e-01,7.081770614011177745e-02,-6.740754372653410265e-01,-2.227107419956578793e-01,1.818388399641387293e-02,-1.874430593587180227e-01,2.457115812201008664e-01,-9.809061637337477269e-01,2.218106946732778528e-01,5.040325399728906586e-01,3.150333820521323824e-01,7.997393181656300976e-02,9.179045355711429321e-01,2.216634116147544742e-01,6.727546081821254020e-01,-6.223183002350436421e-01,3.745210111799834873e-01,-9.905288523781750065e-01,9.722565995274824457e-01,-2.735288842463565184e-01,3.226135834471427488e-01,-8.437590830256258556e-01,9.903723547702270036e-01,-5.062692752776615235e-01,5.231876599304410153e-02,-5.418630531853957377e-01,1.056058381063635226e-01,6.267033573264473023e-02,9.466647553477716137e-01,2.340693966668871417e-01,-1.139452672030331071e+00,7.003153726591462291e-01,-9.680758804558821096e-01,-5.936388204457124784e-01,-1.882728323471040688e-01,-7.469023029609223041e-01,1.266561696720834573e-01,-1.579667636789479079e-01,-4.947812978545860774e-01,1.741351051457970811e-01,4.894662593413386942e-01,2.767935594884352035e-02,-6.941677734401184852e-01,8.651618002352803316e-01,-1.822227818666813381e-02,-8.622059222613852603e-01,7.011565744179278914e-01,4.134904065725823474e-01,8.427314461104957743e-01,6.038558527103929929e-01,6.361687280533488975e-01,-4.849588699913307682e-02,9.552509365118759810e-01,1.987727908034699231e+00,-7.883596211086921768e-01,2.282762896124249374e-01,1.354954924773385194e+00,-1.304230636185139958e-01,2.920203534024479186e-01,-3.397204168897340337e-01,-1.042036088138632854e-01,3.283144276413551554e-01,2.647194651727227677e-01,1.428897018209256409e-01,-6.948972360195904141e-01,8.181020532705510565e-03,4.531175966239937569e-01,1.055677137519321351e-01,2.668106193649851243e-01,-8.870882947113625239e-01,7.786933450358288211e-02,1.084188984868337813e-01,-5.201327172525270770e-01,8.896814386896645388e-01,2.433911697721962697e-01,4.019458686808073666e-02,6.051329953820657748e-01,-4.677313162026675714e-03,-8.297145380505701606e-01,7.037764582568446503e-01,-9.182917203070957157e-01,4.993863858848442971e-01,-1.162122727530972011e+00,1.217095208015445129e+00,-1.068424796111244190e-01,-1.893881742458342760e-02,-8.554593815889156572e-01,8.343172054478548150e-01,9.094563046551206176e-01,-1.402567174573684738e+00,4.306829551686992552e-01,1.040262558916693753e-01,7.046601523158427804e-01,5.499442777901142332e-01,6.074881192755045983e-02,-5.404579423465252219e-01,-2.126226625307228377e-02,-1.841197949959345881e-01,3.503036005843333800e-02,9.708349674532243401e-02,1.177994350976673266e-01,-3.392714201119768902e-02,2.601216382997671439e-01,4.154378167354717821e-02,5.574339719791278069e-01,2.531044675324092830e-01,-6.563331306976652457e-02,1.893277024979839740e-01,-5.179552049024033211e-01,-2.302475949856988557e-01,5.118361317442734482e-01,7.091819101262462066e-01,1.385342348538423640e-01,-1.132730090857905214e-01,-5.313566388661894457e-01,-1.826388753654179797e-01,2.407982099058661174e-01,-3.218532894665090405e-01,-2.482109172004434428e-01,-1.119802263437148060e+00,-9.133222210309023259e-01,-1.354323660058678769e+00,5.635772327881011234e-01,6.079572569445624852e-01,1.739980388051672322e-01,4.737906123764676347e-01,-4.493696532397888355e-01,2.273124612335177680e-02,5.934569744145339054e-02,1.380490950991227761e-01,3.219239746017272252e-01,-3.828277484606618097e-01,9.241053108973381613e-01,-1.575485729230335918e-01,1.027823391277571802e-01,4.457079915388639096e-03,-1.117911261818574920e+00,-8.308673320142426211e-02,9.628444828064373073e-01,5.980021702778822723e-01,-5.414062739428890936e-01,4.446370329768387641e-01,-8.678920363101595425e-01,9.040447054985306652e-01,1.338852717094285716e-01,-7.803316773746766799e-01,-1.650415448930804829e-01,-2.350918779506150358e-01,3.761753680645706921e-01,-1.938312609474989734e-01,1.030603578217507699e-01,-5.088738521454527763e-01,5.237154501528265005e-01,7.568197784465030553e-01,-1.489216529600780881e-01,6.987503793278658781e-01,1.845718496327320990e-01,-2.037912259185667985e-01,-1.377698459700358313e-01,3.074773919834001834e-01,-5.194280887273780012e-01,-1.186998912251258309e+00,7.496101327933561709e-02,1.181058883084345618e-01,3.974455294925424709e-01,5.347948564171003949e-02,3.500248337904705020e-01,-6.523415035796742423e-01,6.344140968263553004e-01,-1.119485573113525145e+00,4.072511354492962532e-01,-1.878312686105161611e-01,5.386452096434313219e-01,-1.089839059326622589e-01,-2.805975334154353629e-01,-6.825092102702923214e-01,1.219509263167320723e-01,1.199471026764651754e-01,-9.839327208468199304e-01,5.420542678248022050e-02,-2.915928455009096365e-01,3.103936245316529785e-01,-1.467467744229936644e-01,4.809828459353554519e-01,7.113161336931073109e-02,-8.847261715706922214e-01,-9.079316847570165772e-01,1.229998973364093695e-01,7.748850757097974773e-02,1.165472053288323151e+00,-1.358147423740229787e+00,-5.373297915801990010e-01,-8.352420921280487853e-01,-3.560884158491422341e-02,5.112178855198272753e-01,4.321949251688984583e-01,-3.159470270017002147e-02,-5.835929934823810283e-01,-2.194811678826437962e-01,4.074916809332865264e-01,-4.885331175185259611e-01,4.539845901569781184e-01,2.297790214227943273e-01,3.764765764643407397e-01,-3.705042704623835448e-01,2.397110577763835182e-01,-7.763350655522535115e-01,-2.469633898484350221e-01,-5.362295286384911597e-01,-2.054256912046381056e-01,-2.181012122378162277e-01,-1.631977527944967199e-01,-2.656260674823169438e-02,5.250961215912848257e-01,1.542025894287303522e+00,-1.677154760719626048e-01,-1.087366677842462603e-01,5.275669440589748627e-01,-1.770043969964545938e-01,-5.444621546110702814e-01,-3.416735110212311133e-01,-2.635452638575220274e-01,2.755365077368087112e-01,2.918675948942686324e-02,2.224549502127955436e-01,2.522399693599813864e-02,-1.161438744901048675e-01,-2.123170073351653142e-01,5.519448931453823093e-01,2.387661738700268960e-02,-1.950058073489822352e-01,-3.560377354752233270e-01,-2.255127814281043253e-01,-1.294010126716341191e-01,5.459148970445909521e-01,1.558480819054989530e-01,-4.187048723128878325e-01,-5.916801152814672449e-01,2.257335685848378681e-01,2.112756502333051623e-01,-2.706801386944023280e-01,6.303177753723050725e-02,-9.456089273975388787e-01,1.511076446348859070e-01,3.298239576431986064e-01,-8.344433410910030435e-01,-6.057679500206187839e-01,2.531096431359282084e-01,-5.608428349664158485e-01,-4.020304072920459215e-01,-5.530931343666005695e-01,-1.345609454329247390e-01,-7.570356537816597120e-02,-1.089422375891447192e+00,-2.494398468781811873e-01,1.689447705364882202e+00,-6.245361813515530880e-01,-1.603321856218396096e-02,2.590741633779061193e-01,-1.742454817666717615e-01,4.619879373748473350e-01,4.973121940677961705e-02,1.818473026768473721e-01,3.603542227845109580e-01,-8.491409796857494197e-01,-1.147024042313875142e-01,5.563661578550566089e-02,-5.374570569667884712e-01,-1.385617766390561355e-02,-2.300016204373257211e-01,1.453604633795978207e-02,8.220585453441906498e-01,-1.906742663165686413e-01,1.008103521663231694e-01,5.457295968532730468e-01,-9.739033617060568471e-01,7.946086739216629002e-01,-2.858813637100579563e-01,6.511818857581803677e-01,5.097967180942196697e-01,4.603776607685461375e-01,9.377248433294757546e-02,9.100186136120713698e-02,3.568763628780050046e-01,-1.867123163625406673e-02,-5.471404920306625203e-03,3.114873765237839986e-01,-9.772559103413602788e-02,-1.396916158871665425e+00,-2.410540190708975947e-02,-9.164124839561191282e-02,4.478064796072921405e-01,-8.914182037662343391e-03,1.007061246862906323e+00,-1.664738951681780654e-01,1.122189797508247738e-01,-8.509552437585270468e-01,1.089864868540814380e-01,-9.729069276109544862e-02,8.410376713188628950e-02,5.676005407507421774e-01,6.055237120631722370e-01,7.113975080818869534e-01,-1.149458204206402767e+00,-9.607640454584617795e-02,-2.290793951351959290e-01,-8.819162314367424704e-01,9.037987612594319820e-02,4.425378142575382423e-01,-5.311847263375507611e-01,-3.756846839005920091e-01,3.399798662046999431e-01,3.319801996074484007e-01,5.934379603784887269e-01,-2.111860090861110706e-01,1.925694758870958978e+00,-5.773196013299126683e-01,-4.250914091411961415e-01,2.474495824486271367e-01,-4.131257679588279386e-01,9.544153186023189572e-02,1.100783138252080962e+00,-5.417122541113576772e-02,2.415012077631444043e-01,-3.250843032064829607e-01,3.423588199669236887e-01,4.939017901941619160e-01,-7.255076823927705254e-01,5.356536062496071171e-01,4.508593453601126289e-01,5.395596336903869528e-01,3.069732663292646380e-01,1.230957140169651298e+00,-1.282661788956637183e-01,-3.811808320794789484e-01,1.179767219461344274e-01,8.103653082522418449e-01,-1.718951104956809584e-01,5.824103313469578547e-01,5.309048236684750233e-01,-1.809679621833409219e-02,4.021743876853663968e-01,-1.737859082883460027e-01,2.088973682160731038e-01,-4.228190523350792707e-01,6.974167786603742147e-01,2.858419945136242979e-01,3.796643692915973589e-01,4.853341247200120279e-01,4.762081991661977209e-01,-4.762766201650825426e-01,-1.094189928610437734e+00,5.876298041446115228e-01,6.958186878897626437e-01,5.723468744889734922e-02,5.310209172820579138e-01,1.048605416657647726e+00,-8.277926969208470043e-01,-6.128702350962103029e-01,3.799442080570388236e-01,-1.286286948260767504e-01,-1.514003150051590751e-01,4.970747330375851480e-01,4.506378163470022291e-01,-3.699624060519878244e-01,9.026581535602892226e-01,-8.800183534500267968e-02,2.186938810435021252e-02,6.518637922875933910e-01,3.023788324113432235e-01,-1.484393612317360944e-01,1.438349232197374816e-01,-4.366097455081130972e-03,-4.113776472764157921e-01,-4.019548198666794692e-01,5.714105928162537262e-01,-3.770532383632673734e-01,-3.017337271676661103e-01,1.115063905200930697e-02,-4.262682093861198673e-01,-4.838381537279931033e-01,3.438146885340861436e-01,1.315050109632032616e+00,8.278475518161181324e-01,-3.720844590557842446e-01,5.361136545847597912e-01,-5.490822272517175556e-02,-7.287007335445163693e-03,-6.339243317066938221e-01,-4.020643963349344180e-02,6.044307043410288571e-01,2.870806264907859728e-01,-5.223570395895186236e-01,-2.966613341214507371e-01,4.652590313186023563e-01,-2.277709032562577618e-01,-5.856010006142433610e-01,2.757550213798822814e-01,3.285813449220476717e-02,-1.603948390987960659e-01,-2.968520118602916424e-01,-1.619554351913080614e-01,-1.296515786280754146e+00,5.250196072840986883e-01,-2.054885016201521697e-01,1.431038871077621732e-01,6.124084606995592317e-01,-2.454752982848160681e-01,1.366685512037044137e-01,3.592006152826620474e-02,-3.776968572171443550e-01,1.538945261434224165e-01,1.201453730093843958e-01,-1.410779538001578348e-01,6.175556579002570157e-01,2.711675770847979949e-01,3.380814159777034145e-01,9.058491836815559806e-01,-6.748271206973988079e-01,-3.159743885710779576e-01,-4.540310103066318992e-01,4.593645597285418436e-01,9.710427492086010082e-02,-6.548659072697118333e-01,1.847202035023571276e-01,5.371633941178498572e-01,5.915737183963545170e-02,9.423169622218630082e-01,-1.148638900425988263e+00,-1.951430577085379592e-01,-6.499111696688397721e-01,8.575920390793913273e-02,-2.981642917902126988e-01,3.954592458974670599e-01,-1.617335111048300855e-01,-1.153956859193903117e+00,-7.177247492744083524e-02,-2.814146084177055473e-01,-9.620390887053609230e-01,6.574139213520338032e-01,-6.490267237206391593e-02,-1.617435918065457667e-01,-1.967372383504971053e-02,1.179224742236056445e+00,-1.732117557906703020e-01,9.181642687407216563e-01,-1.089057638799318273e+00,4.195316835824292601e-01,8.939959504015606573e-01,6.089061396243762581e-02,-4.997056260602351224e-02,-3.884024605418577303e-01,-6.388749356514477062e-01,-7.385194460835410313e-01,-7.282039274672162665e-02,3.803385954806302038e-01,-1.758875407030648486e+00,4.879458777084733079e-01,5.386341206404113291e-02,1.088179871842004098e-01,-1.099664723032224067e+00,-2.913844598103173533e-01,-3.663335508095529880e-01,-2.629361953822132447e-01,-7.618229920299115498e-01,-2.634432859103881808e-01,-6.808695842354829664e-02,2.827353347233895753e-01,-6.958241308341036602e-01,6.346213448868442963e-01,7.167448902332236305e-01,-3.313383196469995018e-01,2.332406016183551922e-01,2.822250149436348332e-01,-3.617838508174342493e-01,-1.388397209163413359e-01,2.071920371389632254e-02,8.301269094288424299e-02,-2.881248016612692475e-01,-4.146075551790862762e-02,2.807260296993769333e-01,-1.134564544379080830e-01,-1.019376378771359379e-02,-3.576760823403771772e-01,3.482957403374786071e-02,-1.530492436075213403e-01,2.817242777800394449e-01,5.295598073330222144e-01,1.372994322626839570e-01,-4.850143353427706083e-01,5.078771973380339158e-03,-3.748430085483420715e-01,-4.106824820083420091e-01,-4.002274214831129662e-01,6.944757870616312667e-01,2.572314445300795116e-01,2.797814840065041553e-01,1.329678018756379893e-02,-1.383060246225527590e-01,2.826218942874073603e-01,5.268541157742965275e-01,-3.259542766715307627e-01,-3.466011653877528603e-02,-8.042926251390702941e-01,9.662984088202875022e-02,-6.315347567018779751e-01,-3.529828086857563774e-01,-1.089277129738746713e-01,-8.197048873617698295e-01,-9.877763614459182662e-02,-1.994052303924650493e-01,5.431842237101972004e-02,-1.952679336379267161e-01,8.469861413477436374e-01,3.139487657346898275e-01,-4.841067888296202160e-01,2.332202667804439966e-01,-3.012866755903991778e-01,-3.502982635215688006e-02,2.774358266679612384e-01,-1.752007357321291592e-01,-6.139405375470807780e-01,-2.787724040623949517e-01,1.652348886884484336e-01,2.184633192945174551e-01,-4.197134497374421791e-01,1.135419547005568353e-01,3.304895522595321933e-02,2.796397793230490647e-01,-4.844702006914012871e-01,-8.584911445266593666e-02,3.349558212147799585e-01,3.805598085129605068e-01,3.309287027304322892e-01,-1.039988884601967950e-01,2.529147818436188605e-02,-1.660629233856738274e-01,-1.007448733899876103e+00,2.969183252577398124e-01,-8.247641646745654809e-01,-2.204323367502462536e-02,3.580403811324380792e-01,-4.311123673767113251e-01,-3.750934100695539897e-01,5.118484635227885660e-01,-1.006244318507177216e+00,2.087411122936728980e-01,7.494952691430456504e-01,-2.265902359003566652e-02,-4.669178409714904165e-01,-1.073456713852499467e-01,-1.298379622075706896e+00,1.317907711693050432e-01,9.369660286849171849e-01,-7.583893834130144285e-01,-1.039423093086644379e+00,-1.013401413244240823e+00,2.318180464798251239e-01,-5.374760477802448255e-02,-1.068119925385342395e-01,2.640230180026124085e-01,3.137887377745423589e-01,-9.025123243717598776e-01,4.252874251590034183e-01,-1.288064923181171384e+00,3.896703676680997042e-01,-5.634030181143108162e-01,-7.601036762080770268e-03,-8.383705779561681504e-02,-1.791179785112282929e-01,2.215724067025843791e-01,-2.083035930484842396e-02,4.022316801893327520e-01,8.873481709980429732e-01,6.097022789114667773e-01,4.301036593184048296e-01,5.449860379825608447e-01,3.889484879740061629e-01,7.797385518834006879e-01,-3.165622226761647395e-01,4.796167452720663249e-01,1.017400269632032783e-01,2.712270403462037072e-01,-5.857650222941739732e-02,3.718223142859371916e-02,1.554419779643657351e-01,8.832554385678242220e-03,-1.386200644453736419e-01,8.929373040655780303e-02,2.494971411167658804e-01,4.945721689672799570e-01,1.836464625183444332e-01,-2.845239985316836973e-01,3.829341863753795150e-01,-3.037016886964999385e-01,2.134135209256583787e-01,2.013995901450435777e-01,-1.684186684631695519e+00,1.494062988266266767e-01,-1.264547764457872314e-01,5.706039668806621723e-01,9.661407460013429760e-02,2.042000589908733454e-01,2.361399825684733778e-01,-1.012681419364595214e+00,5.587207710485786460e-01,-5.158819635040783336e-01,9.472661701381924759e-01,9.215916044921529382e-01,-1.175048158555911826e+00,-3.639078533828918327e-02,-3.254062788194710953e-01,-6.190038726907088479e-02,9.082080039870061849e-01,-6.994480216854900845e-02,2.713268542017012175e-01,-2.152324207052883076e-01,-1.313847806251970118e-01,1.360945044051960373e+00,-2.901716862526332319e-01,1.404263817505000955e-01,1.056413221408676772e+00,1.338175395982938581e-02,1.817460648672536982e-01,1.035539196853233479e+00,2.979674679093956557e-01,-6.640602740296988049e-01,-3.207533011530417921e-01,-3.208083862995131930e-01,6.670617885019465912e-03,3.736546457895335571e-01,7.050235184101897312e-01,-3.113388988644279487e-01,-1.762286151517120369e-01,3.578628877307821754e-01,-9.227465769427096731e-01,-4.172415569211062603e-01,1.124500860301177685e+00,5.231099684775396552e-01,-1.224840944558101885e+00,-3.028229448872289398e-01,3.400379966973613999e-01,-5.026013648836976655e-01,9.957877249609078385e-01,-3.617981132354278762e-01,-8.886660476681762511e-02,7.398786147742234323e-03,-4.498056261417344159e-01,4.394864919125786584e-01,-1.095627031636269150e-01,1.359663167495058334e+00,-2.009370409344571340e-01,6.336780200586357159e-01,-1.321010057932105741e-01,-6.323518941797674764e-03,-6.419506731676122291e-01,3.235803998830278361e-01,-1.209395865871804726e-01,-7.658005643146878483e-02,-9.697906762958095894e-02,-7.469375950454625046e-02,-1.177431649195243291e-01,4.436194831183605802e-01,8.210629188378389953e-01,-2.021633806395043698e-01,-3.304476000584906092e-01,-8.027249480435202922e-02,2.402260755260524350e-01,2.119780088650328465e-01,2.987565964045074685e-01,-3.262784543448493113e-01,2.925471385081701015e-01,4.371996265560708084e-01,2.645597686274745453e-01,1.307481737522290521e-01,-1.435966157186410741e-01,-8.762367701585169755e-01,3.024638628932162510e-01,4.334639271772879332e-01,-5.956511092731461288e-01,6.684308219027969289e-02,1.162024650021035832e+00,1.558852027838799059e-01,3.178156876546595067e-01,9.749365448775176857e-02,-1.016173856094888528e+00,2.997367370549673948e-01,1.925677087325955716e-01,-8.552232244090431923e-01,1.831766807130364161e-01,-1.783419376293812475e-01,5.942760820550820888e-01,4.323720455642529048e-01,7.075082707401368909e-01,-2.560540967225002906e-01,3.001631430259629196e-01,1.907514506311610847e-01,-7.264101860253677767e-01,2.418640383841966224e-02,9.005175053675049668e-01,1.535163801521743698e+00,-1.600451978250914398e-01,2.829470781071226348e-02,-1.807708650549710583e-01,7.320366333297026462e-02,-7.115474593799391290e-01,-2.813328121294990103e-01,-6.115651623967176542e-01,-1.118463943795674043e+00,3.403758279682275179e-01,-1.964265183623126465e-01,8.111002834458074240e-01,5.672585780894994212e-01,-8.243497378710744616e-01,-9.672916746508797292e-01,-4.784480695470099132e-01,5.075317101784728724e-01,4.065285230778671599e-02,-1.816276162972624286e-02,-2.831079658049117653e-01,-2.229506330041250983e-01,-8.594909702852092381e-02,4.696126541248394348e-01,-5.324105655251207964e-02,-6.521569159244051950e-02,-7.425288126227073127e-01,-5.640217686239943351e-01,7.465189490058041777e-01,-1.065613679859639673e-01,-7.130888051157400209e-01,4.854132761765993509e-01,5.600699867623700756e-01,-4.831991598895153395e-01,-1.028819821898237924e-02,1.197673570413928523e+00,1.459483937496570682e+00,5.533871508860481736e-01,-1.544523579366331723e-01,-4.135890677558216599e-01,-5.429103004097657337e-01,8.290176721897801748e-02,1.825547213098579258e+00,-1.061422609317126398e-01,1.444818310184499410e-02,1.218892189853837960e-01,3.079910499943723234e-01,-7.678658351866787801e-02,-1.429078789257966609e+00,-4.687375538329541236e-01,1.663616989901496312e-01,-6.671221468161554480e-01,-7.976556952483056240e-02,5.333967920635512144e-02,4.932916920522106841e-01,1.045365369774641007e+00,-4.452700044245080924e-01,7.453170523469164477e-02,6.703327357595045832e-01,1.213826766521985956e+00,3.271787242208291646e-01,1.433627618988450592e-01,3.615662869294995474e-01,-2.335118357637597786e-01,-8.045035704787990849e-02,-1.573251151521792846e+00,1.237196616349707234e+00,-5.524670094356979450e-02,-6.600794029865886259e-01,-7.079301927971377584e-01,1.252165144980614819e-01,5.521833865958100107e-01,8.328332864184458950e-01,-1.055053855515485639e-01,7.634143198882030745e-01,-1.239154085030204966e+00,1.173952640212511556e+00,-1.100433005407709608e+00,-1.327192061002215595e-01,2.887525668408974858e-02,3.771950782162395432e-01,5.767684979341225482e-02,-4.952804343429275113e-01,-3.540517911196074397e-01,7.268751007037985712e-01,-3.204877327540887888e-02,-2.168917432245018317e-01,1.091290355372392940e+00,7.121112136398413117e-01,3.073845042182546394e-01,4.809889039193523952e-01,-1.378462321568653115e-01,8.585266652775567220e-01,5.003011120480883589e-01,1.813863718521772639e-01,4.025653772554091403e-01,1.242871628368149295e-01,4.518995607106316426e-01,-2.631092613822729742e-01,1.102925109459624853e+00,4.295969329768416500e-01,-2.584312967850074805e-01,-4.633622636925435051e-02,-8.878433534060492516e-02,2.845874158788343558e-03,1.857244364704384310e-01,6.293176765216377255e-01,-2.307831281571083581e-01,4.362943022163889850e-02,-2.643567796932530523e-01,1.665281170486496043e+00,1.095109323471799456e+00,-1.168807179355632331e-01,9.438829311674239164e-02,-1.994909287124881025e+00,-5.355130488322718679e-03,7.999189720625299316e-02,-6.708198349471916622e-02,2.063924379618695126e-02,4.427198517879588624e-01,-5.214156104535324632e-01,1.034166781598873097e+00,6.119590309798663696e-01,-3.521272985612575179e-01,5.802250072368687894e-02,-4.387529096818562624e-01,-2.305758472890647587e-02,2.529514958506324240e-01,2.979098067066500710e-01,1.055523208064960361e+00,1.996014500959877314e-01,-8.464236843621756323e-01,-1.001379334421010014e+00,1.521251314979583658e-01,-4.683441472415029727e-01,1.327925667970173418e-01,-6.676775459477488628e-01,4.131078903132110458e-01,-3.278289330877412477e-01,8.223846431308873273e-02,-2.771495533230499131e-01,1.221267451286639050e+00,4.569990382713929322e-01,8.231741972918481254e-02,5.760635399240995880e-02,-4.426470944386329265e-01,1.707040702492279016e-01,4.870440435600436602e-01,5.282860145274134167e-01,9.063637221881592348e-03,5.553731412052820282e-01,-2.639713502665556044e-01,1.818149589217734341e-01,4.339287617680070985e-01,-1.051953910325111430e+00,-6.165370613050287496e-02,5.564109266174523810e-02,5.589498339226731671e-01,-9.736030060391906993e-01,1.970777157193555895e-01,-6.638519476299925559e-03,3.971850334849436059e-01,-2.556062353545191512e-01,-1.216896888100958085e+00,-3.588378072607616431e-01,7.335396307283725825e-02,4.449375472251217989e-01,-5.511034686997529075e-01,-3.397307111884875774e-01,7.339269800582647052e-02,8.829914024380520754e-01,-4.446855745199516097e-01,1.111573610582295757e+00,6.879936375944926130e-01,3.405139599826694230e-01,1.015960435377665672e+00,6.309553596864406755e-01,7.747801416753080650e-01,8.298115498048298511e-01,-3.235239888433102395e-01,-3.804822603764931865e-01,4.880581849210363643e-01,3.361333525822897128e-01,-5.049669885933739666e-01,2.210792232145955549e-02,9.964099833440621667e-01,1.541324806599898567e-01,7.305625033729932216e-01,-2.138040769646264716e-01,7.151481612781157571e-01,9.648073073413812040e-01,-6.771064182175657864e-01,-2.050813998329202581e-01,-3.223438848227486719e-01,3.869182358356294538e-01,3.113032851761084463e-01,3.853789114366334978e-01,1.001560193759035711e+00,7.285720950189003009e-01,-1.996685381053300568e-01,-2.365248020286626895e-02,2.112584516598918216e-01,5.467505074651231034e-01,5.425879428151821893e-01,-1.041541925005659674e+00,3.476845704265127956e-01,-1.558307093133172616e+00,6.408668503339484124e-01,3.918775659637603881e-01,-5.874209324143349065e-01,-2.985968406432576439e-01,4.719952055653429679e-01,-1.683072582255857597e-01,-3.717207331252574964e-01,-1.379070029824626398e-01,-7.133347118289414812e-01,3.240943508026694619e-01,8.262602930695880366e-01,3.518287691430467268e-01,-2.583807148463521108e-01,-3.284325217549883408e-02,1.130086383322506244e-01,-5.314027375722542024e-01,-1.333234615504618747e-01,-4.219514600972072982e-01,1.551263980125385800e-01,-5.443380753992773657e-01,6.230666680563283766e-01,5.849379248936753539e-02,-7.083572591778415639e-02,-2.644973093316090873e-01,2.458628075567889093e-01,-3.237260453937835791e-01,-7.606616704680328744e-02,-1.596644008926251801e-01,-1.760090929379769936e-02,3.986149137945311227e-01,1.946147171167835199e-01,1.383889797508819630e-01,-6.900442784689402309e-01,-3.565284077514641048e-01,-5.100467728621713714e-01,-8.250546333503598895e-01,1.925824701802005268e-01,-6.160255444509375733e-02,-4.900028368745945606e-01,6.004960619895899354e-01,1.249288788903932357e+00,6.494547132419614677e-02,6.268333026932532137e-02,-8.606780884023759182e-01,-4.356876916630988417e-01,2.597449959188683488e-01,1.319857682580389824e-01,-1.775921161313794017e-01,3.817155171003792646e-01,-4.293857446782376464e-01,1.094653718707736673e-01,-1.128437687905342601e+00,5.169131814998962904e-01,-2.748005566727677040e-01,6.192974671701287903e-01,-2.925515225501368333e-01,2.316587507979652183e-01,-2.168455046305853631e-02,-5.857616604996130905e-01,1.990976623824057823e-01,3.292255017197092126e-01,-7.419028717191192279e-02,7.191756429436610421e-02,-4.142016512476341672e-02,1.369125315129627318e-01,9.132501797139420951e-02,2.807942677339771986e-01,2.422591771382914816e-01,8.007313008952776645e-02,-7.564298402238444075e-01,-3.298876171462127114e-03,-4.539512627455905003e-01,-1.459303939329318622e-01,-8.050233075158171880e-01,1.001724232770349943e+00,-1.642840033991921911e-01,-1.532473362392114125e-01,7.040223607927850180e-01,2.433998424455049991e-01,1.287519846051650152e-01,1.396442356684709507e-01,2.991519061685252723e-01,1.156811747321270678e+00,1.335707569904262204e+00,-7.815974014467073211e-03,-8.169999613355498624e-01,-3.697544999669032106e-02,3.214783816204202505e-01,1.006548353665127848e+00,-8.883096488692954207e-01,-8.946800412083220078e-01,8.485319530644552799e-01,-7.953302210604320521e-01,-1.047335453506308828e-01,-1.334794783920914218e+00,-1.781652397001290133e-01,-5.059720617614614779e-01,-7.982393715122534927e-02,2.373518396472764080e-01,-9.367192541187385757e-01,-7.188302179958446780e-01,-2.173804990447097407e-01,-1.769423618641388363e-01,-9.636989761261349763e-02,-2.065266372295308239e-01,2.422295459536006890e-01,3.937184368629247366e-01,2.442136787085755212e-03,-1.058403081710602711e-01,-3.567131087188060712e-02,5.234140430025141510e-01,3.001609816945937093e-01,7.890475080647051109e-02,6.326954479820992017e-01,-1.524829454631741465e-01,4.613384925559761429e-01,4.712026341604153568e-01,6.838494844609150913e-01,1.119078243729816902e-01,-2.735829248682891679e-01,5.108434915783223174e-01,-3.483493952710026847e-02,-6.901516186065334013e-01,1.979652847666127924e-01,-8.319712405922186083e-02,-2.131186599479284183e-01,-4.117486224696705333e-01,2.655135975279993704e-02,-7.126909232033271646e-01,1.756606441061810686e-01,-6.569411499510686703e-01,1.835586320144022843e-01,-4.797659549777101851e-01,-3.144675731134585206e-01,4.752804642659422818e-01,5.462514197083299106e-01,-6.290964116901462955e-01,1.995696026232977871e-01,-1.059902322608106351e+00,2.952683396209736522e-01,1.380401314975093219e-01,-4.741768422590560972e-01,-1.129796689149808353e+00,3.023829032379464210e-01,1.164715627938416598e-01,2.522276323968442591e-01,-1.537289964165809431e-01,8.571768820700621794e-02,4.846301772645467132e-01,-1.906463096779579258e-01,2.797822529261929647e-01,1.325380248366620495e-01,-8.953910353362866115e-01,4.655080429149647259e-01,-3.400670314693693963e-01,-4.531278510256493419e-01,-4.850278811714597293e-01,4.222854953222965682e-03,-8.430381400707005479e-01,3.591826676548522390e-01,1.330473290333158143e-01,2.205854366208722939e-01,2.237921929406265775e-01,2.232889343609684718e-01,2.600893542536294456e-01,-2.427565732978388124e-01,-1.068667639762066468e+00,4.140512291115147070e-01,-3.977456053006671599e-01,6.187217513748047293e-02,-9.279454084609769504e-01,-1.034988750888909514e+00,-2.314934689592728356e-01,1.220461386891845690e+00,-3.495177342866070958e-01,3.051493480502615041e-01,5.045997497845974289e-01,-5.087954117203350446e-01,7.608229072239089952e-01,4.074624259855494923e-01,-4.491667960049718911e-01,1.119878755461221953e+00,-1.476104414725714631e-01,-4.220540550718390183e-01,-1.299186665802020135e+00,-2.234872215109304228e-01,-4.360591088054556197e-01,-6.236500012321035680e-01,2.768753543417886570e-02,7.157675867180354201e-01,-2.157559211330203897e-02,4.132390452122542412e-01,-6.599632869925890245e-03,-4.692563517776734416e-01,2.121847118099585983e-01,6.249494873638411496e-01,8.784461316539854403e-02,-9.948756721904242206e-02,-1.192640219686960323e+00,6.180757230826922077e-01,2.441598934310240110e-01,-3.057286105609252069e-01,-5.329652463322878120e-01,-5.265437144760771737e-01,-1.278048192053763549e-02,-2.106595727109852600e-01,7.814241480304423559e-01,-3.020100806546567873e-01,-1.283288459794174607e-01,5.147190607511947791e-01,1.015691046945010445e+00,6.283689282939206033e-02,-6.902820770535237349e-01,1.119789170293268743e+00,8.687986675489546562e-02,-5.389990697032172040e-01,4.334822770298915606e-01,9.426137000649249809e-02,-3.507679261773412049e-01,-3.252016084653889250e-01,-3.387852637073496265e-01,1.032065193705598460e+00,7.934012968983170655e-01,4.991121009420426136e-01,-1.101325964066875329e+00,4.804813137002565959e-01,4.795307650853990467e-01,1.202188450232720418e-01,-3.113756768307293088e-01,2.621257983881276621e-01,4.861313440875777991e-01,-7.349837369259096254e-02,6.255997177379561958e-01,5.783635225819074854e-01,9.547846756810260960e-01,-3.050383933129016678e-01,-2.182331979083688978e-01,-1.082918621793007352e+00,3.415156587153331813e-01,-3.488643235336646442e-01,1.218869267170191062e+00,-4.640136635147064093e-01,-1.124343874505382909e-02,6.814713577417489399e-01,1.135010218053845027e-01,-3.501095043410470398e-01,7.212443883540701206e-01,-4.097566570997227542e-01,5.994147371665592416e-01,1.148444001323752683e+00,-2.989440657993330461e-02,-1.070650342101215208e-01,7.916230938093262726e-01,2.854896093367566556e-01,1.494623577532098180e-01,6.265858420697427711e-01,-2.299150847073393455e-01,-6.640363749692363982e-01,-1.215139791018045257e+00,3.789476589931708994e-01,4.464256480527286075e-01,-3.258697859511626715e-01,-9.281448362106865524e-01,-2.865701738807754362e-01,3.626299389711128418e-01,9.436937951670848479e-02,2.797888312419105072e-01,1.256361577685736641e+00,5.205216582740569697e-02,2.671549157540040742e-01,-3.646620015706019124e-01,1.373265283772150958e-01,5.106763761576650108e-03,-5.459855882959541162e-01,1.010597914413003728e+00,4.038271375912181327e-01,-5.292502895447408484e-01,9.452596630622475682e-02,1.319151304459788454e+00,1.203172648389223554e-01,-2.911123937138832551e-01,1.122048246024496820e-01,-1.285776765052936421e-01,-8.957731317269976290e-02,-6.373591861974567396e-02,7.684347649512970335e-01,-1.520069790155799405e-01,-2.972558020440456139e-01,2.342163602016461843e-01,6.379366328836387767e-01,8.224740558106220442e-03,-2.482714855499096596e-01,-4.459007207272754347e-01,-6.858824835301420286e-01,2.675023060686699747e-02,6.709715896442066674e-01,-5.084291871203474589e-01,-7.350876907226810281e-03,-2.000024585844106806e-01,2.138823183343975809e-01,-4.260116246438240828e-01,2.390159896753510371e-02,-1.990685626356676272e-02,7.216622341316946132e-01,-4.720002310829810727e-04,-5.388774563690527097e-01,8.864134384112423160e-01,-2.456000503887882380e-01,4.612726879986897011e-01,2.771620821933523660e-01,3.442949553291459464e-01,1.109159566202339908e+00,-8.314567699059085548e-01,3.293732465443998114e-01,9.540729333671857382e-02,7.195035568067675857e-02,1.761649187280818485e-02,-4.038584843940459801e-01,7.025765596558779247e-02,-9.862305794654329105e-01,-1.770697184121950429e-01,-7.453069983829718748e-01,3.206147517177107553e-01,-2.549626614285596116e-01,7.963386390193797348e-01,7.240813164027306570e-01,2.879422350525894236e-01,-4.448365757852344032e-02,-3.848246912593671909e-01,-1.053814391595288280e-01,7.490270344199813080e-01,2.097028426817543756e-01,5.985263442038346593e-01,-3.261332435462487855e-01,-9.245808718603118481e-02,-8.849781740532673968e-01,2.228883835813991743e-01,-1.718782511214031195e-01,2.713273762628800115e-02,8.751335516718010687e-01,-5.494724591516854106e-01,2.499743307240457624e-01,6.032790854305056932e-02,2.059307704056762001e-02,-3.280530215437965635e-01,-3.806375161885699465e-01,-1.546082036087569334e+00,-3.933049029119095596e-02,-5.881796025043033449e-01,2.475687938786879649e-01,-9.186435951071199035e-01,-1.004618628782743883e+00,3.008975373372023698e-01,3.685690168309626452e-02,3.094242178019432354e-01,4.583274185572913106e-01,-3.358641531940764202e-01,2.577959613166125319e-01,-1.032250050766326532e-01,-1.600308282740163790e-01,4.720317259255143311e-02,-1.367133127411584714e-01,4.321832918846882921e-01,1.271130044454085173e+00,5.921931351776141828e-01,-1.543412140911216979e-01,-1.087676872684407270e+00,3.563431201815892013e-01,2.620631829383840775e-02,1.685006490928916134e-01,1.280067083998569277e+00,7.474686734209806671e-02,-6.605488760753687183e-01,-2.803608258275065990e-01,-1.342539452869426220e-01,8.653874366245024596e-01,2.586921572122033094e-02,-8.249192646819314412e-02,-7.298525880765729390e-01,7.602922960853355505e-01,-5.031238472108721105e-01,1.996361237655857462e-02,-2.695936335220684432e-01,-1.261784935790052908e-01,-1.647296464204538458e-01,5.562421813078302080e-01,-1.591028489916347655e-01,-1.004734607860942458e-01,1.749773891172462514e-01,-1.513742204827169147e+00,7.481144388038423187e-01,-7.205976078597206014e-01,2.756729041531652546e-01,3.632594397168505407e-01,2.569536672011504264e-01,-1.084205456373702914e+00,6.333028256653004950e-01,8.420505145313651463e-01,-2.832241819153651918e-01,4.831142816999078327e-01,-1.390045333957167006e+00,1.291219289015653193e-01,2.202706811673885989e-01,1.240543300503897384e-01,1.238345464442574401e-01,9.980864328190207357e-02,6.748129626412309179e-01,-2.558531775012300447e-01,4.819482016931421198e-01,6.356617175032345246e-01,-2.065412045460646440e-01,-2.566647519249713461e-01,-5.289164825681538229e-01,-3.530668183270609939e-01,-6.114096093784884278e-01,-1.324881343399720579e-01,6.075765852147645141e-02,2.828909067813339950e-01,-5.960586202486140017e-01,2.988329533317626296e-01,1.707066485151694235e-01,-1.361894337956898404e+00,-3.864406081320564262e-02,-7.367117677395379483e-01,-6.203371408809822407e-01,1.179832931095921467e+00,1.295962997728125288e+00,1.966412212822723937e+00,-6.199155293610517786e-02,-8.560882450540725774e-02,2.115254392112309381e-02,4.744297595612660401e-01,2.504204615482565899e-01,-3.070889466973568682e-01,-6.465816087439958393e-01,6.663146621203330788e-01,4.880854664568133328e-01,3.723273777407707930e-01,-3.402565671675060188e-01,-8.557188092959152614e-01,8.307672329124823896e-02,-1.524605550939230614e-01,-2.808802691475582036e-01,2.561285608101044331e-01,-3.942343011156774213e-01,-1.489354454725801413e-01,-2.138443801180199833e-01,-3.268062098733111598e-01,3.321377156082661042e-01,1.139840965352479474e+00,5.264108763818715619e-01,6.973246763840140749e-01,2.720478262069872186e-02,1.556857239268164772e+00,-2.252079680140359752e-01,1.970524773706767985e-01,4.073946488184885389e-02,1.454214115194410184e-01,8.944723396701851348e-01,-5.080674747834908189e-02,-1.291666068134922907e-01,-5.439733533662169940e-01,-8.991835219173381910e-01,2.722325281157125243e-01,-5.837499639411108943e-01,-2.540459790134755869e-01,2.665568237145725661e-01,-4.779948792287499471e-01,-1.738791265981975420e-01,2.481732808865437234e-01,-1.904766567027320057e-01,1.033505168538302044e-01,4.202270070635652499e-01,5.629382591387852575e-01,-1.413758601039242502e-01,1.029413234522053466e+00,-3.896339198926328518e-01,-2.208557518420378729e-01,9.570098324957225788e-01,-7.809405042072453673e-01,5.124559505111968283e-02,-4.688091608918146802e-01,5.291661234189012353e-01,2.326540850560190887e-01,-1.005594531665190000e-01,1.148971837931022311e+00,5.523717241116417043e-01,5.756180019670399384e-01,1.003318285636455087e+00,-5.016937044361825804e-02,-2.485596047640051265e-01,5.955081161407833890e-02,-1.411567223976146312e+00,-1.637261806884559578e-01,3.316165374222027062e-02,6.510442089319325998e-01,-7.179288648640360648e-01,-1.472011557722914532e-01,2.042251176505870680e-01,-6.043271305551997097e-01,-2.382830787238039150e-01,-1.322907391130838661e+00,-6.324805365127439405e-01,-5.558610542851296632e-01,2.096175839027298315e-01,-3.010826231471399606e-01,-7.650845029086166260e-01,1.044343451945990292e-01,4.006529633476489383e-01,2.983610883393458812e-01,3.110618441275370127e-01,-2.581277552622616156e-01,-5.342939689022831867e-02,4.852621389237673499e-01,1.824488786179248867e-01,4.033584813843741346e-01,7.229007616439251382e-01,5.416829813695214213e-01,-4.254604863398417369e-02,-1.590691601354635720e-01,-5.194332947507886156e-02,-1.572058960935130700e-01,1.876060031726116684e-01,-2.622111200756329641e-01,-3.490352578735870237e-01,1.733461826487406321e-01,2.023157463130084710e-01,-1.022045911352441189e-01,3.890589483982683228e-01,6.247988481414191719e-01,-5.511737340317288680e-01,9.304195185081942654e-02,-1.033469870211271013e+00,4.699018976443667533e-02,-1.872397005915124868e-01,4.982839454518169786e-01,5.448980727488798026e-01,-5.625191657851571492e-01,5.839126207000929769e-01,-5.769614549119722602e-01,3.814113975512217758e-01,5.568762339841514253e-01,4.509354144441020673e-01,7.077776325874840513e-01,5.423888992625427452e-01,6.614771753281862843e-01,-8.186486149662576262e-01,-1.740489847516377420e-01,-3.928726861337538678e-01,-1.048960482840734232e-01,-6.901400104707881011e-01,7.229094781162309635e-02,-2.535807757567265508e-02,-9.856733574068793358e-01,5.105008788311734547e-01,1.070379602621076426e-01,9.656641973891625860e-03,1.064119894939165478e+00,4.968415754809379914e-01,4.794538714768381005e-01,-1.881520051545593902e-02,-9.252884059141319728e-01,-5.810820208903772627e-02,2.039725312234154930e-01,4.475327122729011453e-01,5.038788416832954420e-01,-1.572327672423766420e-01,1.167891423998430878e-03,-8.929783387415328733e-01,-8.213930015280024310e-01,-2.791800302968333591e-01,-2.728145675089847511e-01,-4.665847938363837377e-01,1.187563123698767154e+00,-5.268898382181467221e-01,-2.386208930328822253e-01,-9.331962420700044836e-02,-1.180133528839661494e+00,-1.335486605675320106e-02,3.295802380816690302e-01,1.071642251846436633e-01,-6.273222494250759729e-01,-1.915074892981400767e+00,6.604285712293189725e-01,-5.021341388065522771e-02,7.614899514231229238e-01,-6.940456287633579580e-01,-2.337089255751920724e-01,3.232933915458652274e-02,-4.296876248715266744e-01,5.662899376663643736e-01,7.358868992254584684e-01,-5.033197392623776217e-02,-1.622421193818235005e-02,2.526977389888130365e-01,-1.526639869628526880e-01,-6.057593564700263222e-01,-5.020704718187058990e-01,